{"learner":{"attributes":{"best_iteration":"150","best_score":"0.06691223990265638"},"feature_names":["Polynomial_Size","Sparsity","Dist_To_Next_Pow2","Is_Power_2","Is_Power_4"],"feature_types":["int","float","int","int","int"],"gradient_booster":{"model":{"gbtree_model_param":{"num_parallel_tree":"1","num_trees":"753"},"iteration_indptr":[0,3,6,9,12,15,18,21,24,27,30,33,36,39,42,45,48,51,54,57,60,63,66,69,72,75,78,81,84,87,90,93,96,99,102,105,108,111,114,117,120,123,126,129,132,135,138,141,144,147,150,153,156,159,162,165,168,171,174,177,180,183,186,189,192,195,198,201,204,207,210,213,216,219,222,225,228,231,234,237,240,243,246,249,252,255,258,261,264,267,270,273,276,279,282,285,288,291,294,297,300,303,306,309,312,315,318,321,324,327,330,333,336,339,342,345,348,351,354,357,360,363,366,369,372,375,378,381,384,387,390,393,396,399,402,405,408,411,414,417,420,423,426,429,432,435,438,441,444,447,450,453,456,459,462,465,468,471,474,477,480,483,486,489,492,495,498,501,504,507,510,513,516,519,522,525,528,531,534,537,540,543,546,549,552,555,558,561,564,567,570,573,576,579,582,585,588,591,594,597,600,603,606,609,612,615,618,621,624,627,630,633,636,639,642,645,648,651,654,657,660,663,666,669,672,675,678,681,684,687,690,693,696,699,702,705,708,711,714,717,720,723,726,729,732,735,738,741,744,747,750,753],"tree_info":[0,1,2,0,1,2,0,1,2,0,1,2,0,1,2,0,1,2,0,1,2,0,1,2,0,1,2,0,1,2,0,1,2,0,1,2,0,1,2,0,1,2,0,1,2,0,1,2,0,1,2,0,1,2,0,1,2,0,1,2,0,1,2,0,1,2,0,1,2,0,1,2,0,1,2,0,1,2,0,1,2,0,1,2,0,1,2,0,1,2,0,1,2,0,1,2,0,1,2,0,1,2,0,1,2,0,1,2,0,1,2,0,1,2,0,1,2,0,1,2,0,1,2,0,1,2,0,1,2,0,1,2,0,1,2,0,1,2,0,1,2,0,1,2,0,1,2,0,1,2,0,1,2,0,1,2,0,1,2,0,1,2,0,1,2,0,1,2,0,1,2,0,1,2,0,1,2,0,1,2,0,1,2,0,1,2,0,1,2,0,1,2,0,1,2,0,1,2,0,1,2,0,1,2,0,1,2,0,1,2,0,1,2,0,1,2,0,1,2,0,1,2,0,1,2,0,1,2,0,1,2,0,1,2,0,1,2,0,1,2,0,1,2,0,1,2,0,1,2,0,1,2,0,1,2,0,1,2,0,1,2,0,1,2,0,1,2,0,1,2,0,1,2,0,1,2,0,1,2,0,1,2,0,1,2,0,1,2,0,1,2,0,1,2,0,1,2,0,1,2,0,1,2,0,1,2,0,1,2,0,1,2,0,1,2,0,1,2,0,1,2,0,1,2,0,1,2,0,1,2,0,1,2,0,1,2,0,1,2,0,1,2,0,1,2,0,1,2,0,1,2,0,1,2,0,1,2,0,1,2,0,1,2,0,1,2,0,1,2,0,1,2,0,1,2,0,1,2,0,1,2,0,1,2,0,1,2,0,1,2,0,1,2,0,1,2,0,1,2,0,1,2,0,1,2,0,1,2,0,1,2,0,1,2,0,1,2,0,1,2,0,1,2,0,1,2,0,1,2,0,1,2,0,1,2,0,1,2,0,1,2,0,1,2,0,1,2,0,1,2,0,1,2,0,1,2,0,1,2,0,1,2,0,1,2,0,1,2,0,1,2,0,1,2,0,1,2,0,1,2,0,1,2,0,1,2,0,1,2,0,1,2,0,1,2,0,1,2,0,1,2,0,1,2,0,1,2,0,1,2,0,1,2,0,1,2,0,1,2,0,1,2,0,1,2,0,1,2,0,1,2,0,1,2,0,1,2,0,1,2,0,1,2,0,1,2,0,1,2,0,1,2,0,1,2,0,1,2,0,1,2,0,1,2,0,1,2,0,1,2,0,1,2,0,1,2,0,1,2,0,1,2,0,1,2,0,1,2,0,1,2,0,1,2,0,1,2,0,1,2,0,1,2,0,1,2,0,1,2,0,1,2,0,1,2,0,1,2,0,1,2,0,1,2,0,1,2,0,1,2,0,1,2,0,1,2,0,1,2,0,1,2,0,1,2,0,1,2,0,1,2,0,1,2,0,1,2,0,1,2,0,1,2,0,1,2,0,1,2,0,1,2,0,1,2,0,1,2,0,1,2,0,1,2,0,1,2,0,1,2,0,1,2,0,1,2,0,1,2,0,1,2,0,1,2,0,1,2,0,1,2,0,1,2,0,1,2,0,1,2,0,1,2,0,1,2,0,1,2,0,1,2,0,1,2,0,1,2,0,1,2,0,1,2,0,1,2,0,1,2,0,1,2],"trees":[{"base_weights":[9.001167E-1,-4.829725E-1,1.421482E0,-6.575586E-1,9.5954254E-2,1.0705978E0,1.4811206E0,-7.234365E-1,-3.9421967E-1,6.69488E-1,-1.6368084E-1,1.2212394E0,-9.9334925E-2,1.3661051E-1,1.4878865E-1,-7.2742385E-1,4.129213E-1,1.2762144E0,-5.2255166E-1,9.683941E-1,-6.6384816E-1,1.728549E-1,-4.0296164E-1,1.4308363E0,1.0084138E0,1.2834728E-1,-3.197132E-1,-7.395393E-1,-6.166805E-1,8.1210155E-3,6.952555E-2,9.2665955E-2,1.4238624E-1,8.690476E-1,-5.702987E-1,1.3599688E0,-4.5336196E-1,-7.1503505E-2,-3.8355052E-1,2.9306632E-2,9.2441857E-1,1.5727432E-1,-5.444502E-1,1.0164531E-1,1.4671898E0,1.0875158E0,6.1945164E-1,-1.4418994E-1,-4.6956798E-1,-7.423194E-2,1.1004672E-1,9.3927443E-1,-6.854098E-2,5.07085E-2,1.0525936E-1,-6.4436626E-1,-3.1649724E-1,1.483837E-1,9.848643E-1,-6.3393526E-2,9.104278E-2,-1.1915891E-2,-4.5264322E-2,9.757525E-1,-1.19195774E-1,7.768817E-1,1.1447369E-1,1.0508596E0,-6.1951125E-1,-6.026944E-1,-4.1572344E-1,1.4854166E-1,1.2569402E-1,1.1347684E0,5.9673697E-1,-7.6485146E-3,1.1899557E-1,-3.0655533E-1,5.1432915E-2,-5.278562E-1,-1.7101018E-2,1.2125551E-1,1.730769E-2,-5.2010745E-1,-6.9616616E-1,8.96226E-2,-3.7351695E-1,1.0197016E-1,5.111465E-2,1.0288104E-1,3.653846E-2,-3.0298018E-1,3.3358476E-1,9.8255813E-1,5.6132074E-2,3.0089816E-2,1.1551819E-1,-7.2176926E-2,-3.8958815E-1,-5.2552384E-1,-6.744206E-1,3.7709456E-2,-5.1694006E-1,1.3657041E-1,1.0111452E0,1.358108E-1,-1.9263369E-1,3.850546E-1,-5.8624458E-2,-3.739555E-1,3.653846E-2,-1.4533244E-1,5.2272725E-1,-5.950651E-1,-4.0466356E-1,-1.5528639E-1,2.5934577E-2,-2.1652725E-2,-5.84506E-2,-3.8355052E-2,-7.049842E-2,3.678344E-2,-3.674356E-3,-3.1618472E-2,-6.0413297E-2,-1.5292245E-2,-6.901065E-2,4.634102E-2,-2.954546E-2,5.111465E-2,1.1585603E-1,-2.110779E-2,-4.4696975E-2,-5.8702607E-2,-2.9148478E-2,-4.735873E-2,-6.98017E-2,2.6612898E-2,-1.0158506E-2,-3.5849545E-2,-6.1832488E-2,-3.9872643E-2,1.20444156E-1,3.318815E-2,-4.8372786E-2,1.1585603E-1,1.1293433E-2,-5.5728056E-2,-2.2017274E-2,9.563754E-3,-5.148084E-2,-1.1915891E-2,7.8456216E-2,-4.1830473E-2,-6.529127E-2,-2.5201214E-2,-5.7095498E-2,-3.3439528E-3,-2.8608251E-2],"categories":[],"categories_nodes":[],"categories_segments":[],"categories_sizes":[],"default_left":[0,0,0,0,0,0,0,0,0,0,0,0,0,0,0,0,0,0,0,0,0,0,0,0,0,0,0,0,0,0,0,0,0,0,0,0,0,0,0,0,0,0,0,0,0,0,0,0,0,0,0,0,0,0,0,0,0,0,0,0,0,0,0,0,0,0,0,0,0,0,0,0,0,0,0,0,0,0,0,0,0,0,0,0,0,0,0,0,0,0,0,0,0,0,0,0,0,0,0,0,0,0,0,0,0,0,0,0,0,0,0,0,0,0,0,0,0,0,0,0,0,0,0,0,0,0,0,0,0,0,0,0,0,0,0,0,0,0,0,0,0,0,0,0,0,0,0,0,0,0,0,0,0,0,0,0,0,0,0],"id":0,"left_children":[1,3,5,7,9,11,13,15,17,19,21,23,25,-1,-1,27,29,31,33,35,37,39,41,43,45,-1,47,49,51,-1,-1,-1,-1,53,55,57,59,-1,61,63,65,67,69,-1,71,73,75,77,79,-1,-1,81,-1,-1,-1,83,85,-1,87,-1,-1,-1,-1,89,91,93,-1,95,97,99,101,-1,-1,103,105,107,-1,109,111,113,115,-1,-1,117,119,121,123,-1,-1,-1,-1,125,127,129,-1,-1,-1,-1,131,133,135,137,139,-1,141,-1,143,145,-1,147,-1,149,151,153,155,157,-1,-1,-1,-1,-1,-1,-1,-1,-1,-1,-1,-1,-1,-1,-1,-1,-1,-1,-1,-1,-1,-1,-1,-1,-1,-1,-1,-1,-1,-1,-1,-1,-1,-1,-1,-1,-1,-1,-1,-1,-1,-1,-1],"loss_changes":[1.3719887E4,5.2663904E2,2.8698828E2,6.898291E1,1.8004486E2,3.5483032E2,6.4589844E0,1.4890869E1,1.730499E2,1.5095491E2,6.712972E1,7.753931E1,7.064893E1,0E0,0E0,3.5959473E0,9.6595263E-1,1.1567154E0,5.0227066E1,1.7247467E2,5.602646E-1,3.7258095E1,3.874273E1,1.1444214E1,2.6365906E1,0E0,5.1144695E0,1.5614258E1,3.52388E1,0E0,0E0,0E0,0E0,8.7773514E-1,1.3258423E1,9.247742E0,1.7268597E1,0E0,1.2734628E-1,4.1309395E1,5.421486E-1,6.952722E1,2.5155487E0,0E0,6.270752E-1,1.6100098E1,5.4938473E1,3.0329192E0,2.7560482E0,0E0,0E0,2.5596275E0,0E0,0E0,0E0,3.0389404E0,3.9146519E0,0E0,2.7544785E-1,0E0,0E0,0E0,0E0,7.005615E-1,2.1224993E1,8.3306694E-1,0E0,3.077942E0,8.1269073E-1,9.2017365E-1,5.837763E0,0E0,0E0,1.724823E1,4.0951508E1,1.712522E1,0E0,2.5138044E0,4.155636E0,3.937645E-1,5.591516E-1,0E0,0E0,3.084591E0,6.4201355E-1,7.946466E-1,1.6102943E0,0E0,0E0,0E0,0E0,1.0315199E1,6.1952925E0,5.494728E-1,0E0,0E0,0E0,0E0,1.9927025E-2,1.6304855E0,1.13162994E-1,8.082759E-1,1.2905388E0,0E0,1.2101511E2,0E0,5.4126377E0,9.136284E0,0E0,1.124486E0,0E0,2.8986015E0,2.3972263E0,1.5910912E-1,7.006283E-1,1.1735563E-1,0E0,0E0,0E0,0E0,0E0,0E0,0E0,0E0,0E0,0E0,0E0,0E0,0E0,0E0,0E0,0E0,0E0,0E0,0E0,0E0,0E0,0E0,0E0,0E0,0E0,0E0,0E0,0E0,0E0,0E0,0E0,0E0,0E0,0E0,0E0,0E0,0E0,0E0,0E0,0E0,0E0,0E0,0E0],"parents":[2147483647,0,0,1,1,2,2,3,3,4,4,5,5,6,6,7,7,8,8,9,9,10,10,11,11,12,12,15,15,16,16,17,17,18,18,19,19,20,20,21,21,22,22,23,23,24,24,26,26,27,27,28,28,33,33,34,34,35,35,36,36,38,38,39,39,40,40,41,41,42,42,44,44,45,45,46,46,47,47,48,48,51,51,55,55,56,56,58,58,63,63,64,64,65,65,67,67,68,68,69,69,70,70,73,73,74,74,75,75,77,77,78,78,79,79,80,80,83,83,84,84,85,85,86,86,91,91,92,92,93,93,98,98,99,99,100,100,101,101,102,102,104,104,106,106,107,107,109,109,111,111,112,112,113,113,114,114,115,115],"right_children":[2,4,6,8,10,12,14,16,18,20,22,24,26,-1,-1,28,30,32,34,36,38,40,42,44,46,-1,48,50,52,-1,-1,-1,-1,54,56,58,60,-1,62,64,66,68,70,-1,72,74,76,78,80,-1,-1,82,-1,-1,-1,84,86,-1,88,-1,-1,-1,-1,90,92,94,-1,96,98,100,102,-1,-1,104,106,108,-1,110,112,114,116,-1,-1,118,120,122,124,-1,-1,-1,-1,126,128,130,-1,-1,-1,-1,132,134,136,138,140,-1,142,-1,144,146,-1,148,-1,150,152,154,156,158,-1,-1,-1,-1,-1,-1,-1,-1,-1,-1,-1,-1,-1,-1,-1,-1,-1,-1,-1,-1,-1,-1,-1,-1,-1,-1,-1,-1,-1,-1,-1,-1,-1,-1,-1,-1,-1,-1,-1,-1,-1,-1,-1],"split_conditions":[2.28E2,6.4E1,8.1E2,3E0,1.49E2,7.83E2,1.035E3,1E0,3.3E1,1E0,8.2E1,5.35E2,2.27E2,1.3661051E-1,1.4878865E-1,1.4E1,1.4E1,1.4E1,1E1,1.25E2,6.66667E-1,6.7E1,1.62E2,2.49E2,4.56E2,1.2834728E-1,5.5638045E-1,2E0,2E0,8.1210155E-3,6.952555E-2,9.2665955E-2,1.4238624E-1,3.5608673E-1,5.546802E-1,1.32E2,1.26E2,-7.1503505E-2,7.7954787E-1,3.9E1,6.176207E-1,1.07E2,5.38466E-1,1.0164531E-1,5.13E2,7.7E2,4.66E2,7.88E2,9.727458E-1,-7.423194E-2,1.1004672E-1,3.3E1,-6.854098E-2,5.07085E-2,1.0525936E-1,2.2235523E-1,5.5638045E-1,1.483837E-1,8.9435333E-1,-6.3393526E-2,9.104278E-2,-1.1915891E-2,-4.5264322E-2,8.9435333E-1,4.9869382E-1,2.2235523E-1,1.1447369E-1,1.09441996E-1,1.0090467E-1,1.71E2,6.689341E-1,1.4854166E-1,1.2569402E-1,3.32E2,2.52E2,5.68E2,1.1899557E-1,5.088187E-1,2.33E2,2.33E2,7.94E2,1.2125551E-1,1.730769E-2,4.2E1,1.3E1,4.3E1,3E1,1.0197016E-1,5.111465E-2,1.0288104E-1,3.653846E-2,2.17E2,2.17E2,7.1E1,5.6132074E-2,3.0089816E-2,1.1551819E-1,-7.2176926E-2,3.4454298E-1,3.3125752E-1,1.20671146E-1,5.5638045E-1,8.9435333E-1,1.3657041E-1,3.36E2,1.358108E-1,6.689341E-1,4.61E2,-5.8624458E-2,8.472447E-2,3.653846E-2,3.4454298E-1,6.319019E-2,2.3E2,2.4E2,2.4E2,2.5934577E-2,-2.1652725E-2,-5.84506E-2,-3.8355052E-2,-7.049842E-2,3.678344E-2,-3.674356E-3,-3.1618472E-2,-6.0413297E-2,-1.5292245E-2,-6.901065E-2,4.634102E-2,-2.954546E-2,5.111465E-2,1.1585603E-1,-2.110779E-2,-4.4696975E-2,-5.8702607E-2,-2.9148478E-2,-4.735873E-2,-6.98017E-2,2.6612898E-2,-1.0158506E-2,-3.5849545E-2,-6.1832488E-2,-3.9872643E-2,1.20444156E-1,3.318815E-2,-4.8372786E-2,1.1585603E-1,1.1293433E-2,-5.5728056E-2,-2.2017274E-2,9.563754E-3,-5.148084E-2,-1.1915891E-2,7.8456216E-2,-4.1830473E-2,-6.529127E-2,-2.5201214E-2,-5.7095498E-2,-3.3439528E-3,-2.8608251E-2],"split_indices":[0,0,0,2,0,0,0,4,0,4,2,0,2,0,0,0,0,0,2,2,1,2,0,0,2,0,1,2,2,0,0,0,0,1,1,0,2,0,1,2,1,2,1,0,0,0,2,0,1,0,0,0,0,0,0,1,1,0,1,0,0,0,0,1,1,1,0,1,1,0,1,0,0,2,2,0,0,1,2,2,0,0,0,0,2,0,2,0,0,0,0,0,0,2,0,0,0,0,1,1,1,1,1,0,2,0,1,2,0,1,0,1,1,2,2,2,0,0,0,0,0,0,0,0,0,0,0,0,0,0,0,0,0,0,0,0,0,0,0,0,0,0,0,0,0,0,0,0,0,0,0,0,0,0,0,0,0,0,0],"split_type":[0,0,0,0,0,0,0,0,0,0,0,0,0,0,0,0,0,0,0,0,0,0,0,0,0,0,0,0,0,0,0,0,0,0,0,0,0,0,0,0,0,0,0,0,0,0,0,0,0,0,0,0,0,0,0,0,0,0,0,0,0,0,0,0,0,0,0,0,0,0,0,0,0,0,0,0,0,0,0,0,0,0,0,0,0,0,0,0,0,0,0,0,0,0,0,0,0,0,0,0,0,0,0,0,0,0,0,0,0,0,0,0,0,0,0,0,0,0,0,0,0,0,0,0,0,0,0,0,0,0,0,0,0,0,0,0,0,0,0,0,0,0,0,0,0,0,0,0,0,0,0,0,0,0,0,0,0,0,0],"sum_hessian":[1.9023998E4,5.2079995E3,1.3815999E4,4.001333E3,1.2066666E3,2.0106665E3,1.1805333E4,3.1986665E3,8.026666E2,3.7555554E2,8.311111E2,1.7813333E3,2.2933331E2,6.7022217E2,1.113511E4,3.1879998E3,1.0666666E1,5.6444443E1,7.4622217E2,3.0711108E2,6.844444E1,3.453333E2,4.8577774E2,8.937777E2,8.875555E2,3.0666664E1,1.9866666E2,2.8666665E3,3.213333E2,5.7777777E0,4.8888884E0,1.9555553E1,3.6888885E1,2.3999998E1,7.2222217E2,2.4088887E2,6.622222E1,5.5999996E1,1.2444444E1,2.9111108E2,5.4222218E1,9.777777E1,3.8799997E2,7.511111E1,8.186666E2,7.3555554E2,1.5199998E2,9.2888885E1,1.0577777E2,2.8631108E3,3.5555553E0,1.2888888E1,3.0844443E2,9.777777E0,1.4222221E1,5.573333E2,1.6488889E2,1.7822221E2,6.2666664E1,5.9111107E1,7.1111107E0,3.5555553E0,8.888888E0,3.8666664E1,2.5244443E2,3.5999996E1,1.8222221E1,4.5333332E1,5.2444443E1,2.6355554E2,1.24444435E2,7.4622217E2,7.244444E1,6.693333E2,6.622222E1,7.2888885E1,7.911111E1,5.0666664E1,4.222222E1,9.333333E1,1.2444444E1,8.888888E0,3.9999998E0,1.6844443E2,3.8888885E2,1.9999998E1,1.4488889E2,5.6888885E1,5.7777777E0,3.4666664E1,3.9999998E0,1.7999998E2,7.244444E1,1.5999999E1,1.9999998E1,6.222222E0,3.9111107E1,3.422222E1,1.8222221E1,1.3244444E2,1.311111E2,2.2666666E1,1.0177777E2,2.2888887E2,4.4044443E2,3.3333332E1,3.2888885E1,4.3555553E1,2.9333332E1,4.6666664E1,3.9999998E0,3.0222221E1,1.1999999E1,5.6888885E1,3.6444443E1,8.888888E0,3.5555553E0,3.0666664E1,1.3777777E2,1.2444444E1,3.7644443E2,5.7777777E0,1.4222221E1,1.1866666E2,2.6222221E1,1.311111E2,4.8888885E1,6.0444443E1,1.1999999E1,5.7777777E0,1.0222221E1,6.222222E0,1.1999999E1,1.0311111E2,2.9333332E1,1.6888887E1,1.1422221E2,8.444444E0,1.4222221E1,4.222222E1,5.9555553E1,5.2888885E1,3.8755554E2,1.1555555E1,2.1333332E1,1.0222221E1,3.3333332E1,1.9555553E1,2.7111109E1,1.8666666E1,1.1555555E1,3.5555553E0,8.444444E0,1.6888887E1,3.9999996E1,2.0888887E1,1.5555554E1,5.7777777E0,3.111111E0],"tree_param":{"num_deleted":"0","num_feature":"5","num_nodes":"159","size_leaf_vector":"1"}},{"base_weights":[-4.108394E-1,-7.480749E-1,1.4272643E0,-5.763507E-1,-7.4844375E-2,1.4895822E-1,-6.79943E-2,1.1440675E-2,-7.202775E-2],"categories":[],"categories_nodes":[],"categories_segments":[],"categories_sizes":[],"default_left":[0,0,0,0,0,0,0,0,0],"id":1,"left_children":[1,3,5,7,-1,-1,-1,-1,-1],"loss_changes":[1.1813445E4,3.701172E-1,3.8927588E2,4.167141E0,0E0,0E0,0E0,0E0,0E0],"parents":[2147483647,0,0,1,1,2,2,3,3],"right_children":[2,4,6,8,-1,-1,-1,-1,-1],"split_conditions":[1E0,2E0,1E0,4.3502897E-2,-7.4844375E-2,1.4895822E-1,-6.79943E-2,1.1440675E-2,-7.202775E-2],"split_indices":[3,2,4,1,0,0,0,0,0],"split_type":[0,0,0,0,0,0,0,0,0],"sum_hessian":[1.9054666E4,1.6101332E4,2.9533333E3,3.9111107E1,1.6062222E4,2.8688887E3,8.444444E1,6.666666E0,3.2444443E1],"tree_param":{"num_deleted":"0","num_feature":"5","num_nodes":"9","size_leaf_vector":"1"}},{"base_weights":[-4.907487E-1,-9.269543E-2,-7.326779E-1,-7.451492E-1,3.4424338E-1,-6.127049E-1,-7.397902E-2,-7.4825555E-1,-2.7830192E-1,9.2320913E-1,-3.2273117E-1,-4.0116284E-2,-6.1699063E-2,-7.489516E-2,-2.572993E-2,-3.430233E-2,-0E0,1.2006044E0,6.2076753E-1,-4.7480354E-1,8.237658E-1,1.2321167E0,-7.007659E-2,-7.433175E-2,8.3315164E-1,-6.4660186E-1,-1.9038044E-1,-5.762549E-2,1.059125E0,9.48915E-1,1.2955301E0,-3.3443278E-1,8.970876E-1,-6.866927E-1,4.7385577E-2,1.1466061E0,-3.1294852E-1,7.789575E-2,1.1084632E0,1.2640913E0,-6.949205E-2,1.1567991E0,1.324098E0,-4.669812E-2,-2.2598258E-1,5.285813E-1,1.0159298E0,-3.2820743E-1,-7.1383804E-1,-6.584125E-2,8.2871065E-2,9.4650656E-2,1.318369E-1,-1.3345104E-1,-5.8537596E-1,1.3097015E-1,9.774616E-1,-4.9063407E-2,1.413305E-1,-4.3253973E-2,1.4143048E-1,1.2881556E-1,1.4122653E-1,-1.1768154E-2,-3.58014E-2,-3.0752217E-2,7.352107E-2,6.746396E-2,1.2854023E-1,-2.8074905E-3,-3.573045E-2,-7.405503E-2,-6.229804E-2,7.768817E-2,-2.3423221E-2,-6.5306954E-2,-5.458483E-2,8.552104E-2,1.1422092E-1],"categories":[],"categories_nodes":[],"categories_segments":[],"categories_sizes":[],"default_left":[0,0,0,0,0,0,0,0,0,0,0,0,0,0,0,0,0,0,0,0,0,0,0,0,0,0,0,0,0,0,0,0,0,0,0,0,0,0,0,0,0,0,0,0,0,0,0,0,0,0,0,0,0,0,0,0,0,0,0,0,0,0,0,0,0,0,0,0,0,0,0,0,0,0,0,0,0,0,0],"id":2,"left_children":[1,3,5,7,9,11,-1,13,15,17,19,-1,-1,-1,-1,-1,-1,21,23,25,27,29,-1,-1,31,33,35,-1,37,39,41,43,45,47,49,51,53,-1,55,57,-1,59,61,-1,63,65,67,69,71,-1,-1,-1,-1,73,75,-1,77,-1,-1,-1,-1,-1,-1,-1,-1,-1,-1,-1,-1,-1,-1,-1,-1,-1,-1,-1,-1,-1,-1],"loss_changes":[1.8322334E3,2.0513826E3,9.418457E0,3.8326416E0,1.66461E3,2.086792E-1,0E0,6.4733887E-1,3.8185596E-1,1.9250647E2,3.4973212E2,0E0,0E0,0E0,0E0,0E0,0E0,7.3114136E1,3.2132593E2,8.623941E1,7.820766E1,1.9545166E1,0E0,0E0,7.193823E1,3.077832E1,1.0986461E2,0E0,1.5624542E0,1.15714294E2,1.7303467E0,5.304799E-1,3.8999268E1,9.759735E0,3.4421E1,2.1150208E-1,2.9819866E1,0E0,2.672165E0,4.9647827E1,0E0,7.2262436E1,4.9316406E-2,0E0,3.384726E-1,3.9066875E1,6.1820923E1,6.1196613E-1,1.6590881E0,0E0,0E0,0E0,0E0,3.4239998E1,1.02493286E-1,0E0,7.826462E-1,0E0,0E0,0E0,0E0,0E0,0E0,0E0,0E0,0E0,0E0,0E0,0E0,0E0,0E0,0E0,0E0,0E0,0E0,0E0,0E0,0E0,0E0],"parents":[2147483647,0,0,1,1,2,2,3,3,4,4,5,5,7,7,8,8,9,9,10,10,17,17,18,18,19,19,20,20,21,21,24,24,25,25,26,26,28,28,29,29,30,30,31,31,32,32,33,33,34,34,35,35,36,36,38,38,39,39,41,41,42,42,44,44,45,45,46,46,47,47,48,48,53,53,54,54,56,56],"right_children":[2,4,6,8,10,12,-1,14,16,18,20,-1,-1,-1,-1,-1,-1,22,24,26,28,30,-1,-1,32,34,36,-1,38,40,42,44,46,48,50,52,54,-1,56,58,-1,60,62,-1,64,66,68,70,72,-1,-1,-1,-1,74,76,-1,78,-1,-1,-1,-1,-1,-1,-1,-1,-1,-1,-1,-1,-1,-1,-1,-1,-1,-1,-1,-1,-1,-1],"split_conditions":[8.1E2,1.4E1,1.035E3,3E0,2.28E2,5E0,-7.397902E-2,1E0,7E0,7.2E1,7.83E2,-4.0116284E-2,-6.1699063E-2,-7.489516E-2,-2.572993E-2,-3.430233E-2,-0E0,3.2E1,1.26E2,3.32E2,2.27E2,3.3E1,-7.007659E-2,-7.433175E-2,3.9E1,7.7E2,3.36E2,-5.762549E-2,2.3E2,3E0,4.2E1,3.2E1,1.62E2,2.49E2,2.52E2,6.92E2,6.09E2,7.789575E-2,2.33E2,2E0,-6.949205E-2,3E1,6.2E1,-4.669812E-2,3.6E1,1.07E2,8.2E1,1E1,5.13E2,-6.584125E-2,8.2871065E-2,9.4650656E-2,1.318369E-1,4.2E2,3.65E2,1.3097015E-1,2.4E2,-4.9063407E-2,1.413305E-1,-4.3253973E-2,1.4143048E-1,1.2881556E-1,1.4122653E-1,-1.1768154E-2,-3.58014E-2,-3.0752217E-2,7.352107E-2,6.746396E-2,1.2854023E-1,-2.8074905E-3,-3.573045E-2,-7.405503E-2,-6.229804E-2,7.768817E-2,-2.3423221E-2,-6.5306954E-2,-5.458483E-2,8.552104E-2,1.1422092E-1],"split_indices":[0,0,0,2,0,2,0,4,2,0,0,0,0,0,0,0,0,2,0,2,2,0,0,0,2,0,2,0,2,2,0,2,0,0,2,0,0,0,2,2,0,2,0,0,2,2,2,2,0,0,0,0,0,2,2,0,2,0,0,0,0,0,0,0,0,0,0,0,0,0,0,0,0,0,0,0,0,0,0],"split_type":[0,0,0,0,0,0,0,0,0,0,0,0,0,0,0,0,0,0,0,0,0,0,0,0,0,0,0,0,0,0,0,0,0,0,0,0,0,0,0,0,0,0,0,0,0,0,0,0,0,0,0,0,0,0,0,0,0,0,0,0,0,0,0,0,0,0,0,0,0,0,0,0,0,0,0,0,0,0,0],"sum_hessian":[1.9026666E4,7.193333E3,1.1833333E4,2.8848887E3,4.3084443E3,6.6888885E2,1.1164443E4,2.8648887E3,1.9999998E1,2.3062222E3,2.002222E3,1.5999999E1,6.5288885E2,2.8599998E3,4.8888884E0,1.5999999E1,3.9999998E0,1.2008888E3,1.1053333E3,1.7684443E3,2.3377777E2,1.1817777E3,1.911111E1,1.4844444E2,9.5688885E2,1.1013333E3,6.671111E2,3.3333332E1,2.0044443E2,2.1999998E2,9.617777E2,4.9333332E1,9.075555E2,1.0413333E3,5.9999996E1,5.5111107E1,6.1199994E2,3.3333332E1,1.671111E2,1.8488889E2,3.511111E1,1.7333333E2,7.884444E2,1.9999998E1,2.9333332E1,2.231111E2,6.844444E2,7.4666664E1,9.666666E2,3.1555553E1,2.8444443E1,2.9333332E1,2.5777777E1,3.702222E2,2.4177777E2,6.133333E1,1.0577777E2,1.4222221E1,1.7066666E2,2.3999998E1,1.4933333E2,5.7422217E2,2.1422221E2,1.7777777E1,1.1555555E1,4.3999996E1,1.791111E2,3.0399997E2,3.8044443E2,7.1111107E0,6.755555E1,7.3955554E2,2.271111E2,3.5999996E1,3.342222E2,8.133333E1,1.6044443E2,6.533333E1,4.0444443E1],"tree_param":{"num_deleted":"0","num_feature":"5","num_nodes":"79","size_leaf_vector":"1"}},{"base_weights":[8.007589E-1,-4.6000388E-1,1.2350755E0,-6.2775296E-1,8.069766E-2,9.477157E-1,1.2828188E0,-4.1526195E-1,-7.1273845E-1,6.038096E-1,-1.6514327E-1,1.07148E0,-5.079183E-2,1.18850194E-1,1.2883765E-1,8.693973E-1,-4.5696285E-1,-7.176515E-1,8.710844E-1,8.70097E-1,-6.37401E-1,-3.1311136E-1,1.3483742E-1,1.2369224E0,8.700756E-1,-2.8185517E-1,2.701588E-1,3.6740635E-2,1.0739048E0,-2.3582746E-1,-5.110499E-1,-7.193758E-2,5.7491404E-3,1.0735474E-1,4.1580122E-2,1.2908854E-1,3.396574E-1,-6.8679385E-2,-4.0845805E-1,-4.6174946E-1,-1.5798171E-1,-1.7153616E-1,4.5315078E-1,9.443592E-2,1.2598848E0,5.593031E-1,9.868164E-1,-1.5441254E-1,-4.3658656E-1,7.780049E-1,6.1614137E-2,1.1902296E-1,5.419143E-2,-5.4033767E-2,-1.3489008E-1,-5.838022E-1,-3.4995842E-1,-1.832573E-1,9.3287575E-1,-2.3409761E-3,-4.9152307E-2,-1.5439154E-1,-5.5481756E-1,1.1961436E-1,-2.6226673E-1,6.5861434E-1,-4.026854E-1,8.568681E-2,3.7586454E-1,1.2883197E-1,1.10079944E-1,6.28243E-1,1.4745174E-1,1.17557906E-1,8.691116E-1,-3.2522827E-1,2.1788315E-1,-2.362996E-1,-5.3270435E-1,4.470536E-2,8.713906E-2,-2.7551727E-2,7.270053E-2,1.23802826E-1,-4.2390397E-1,-4.8469034E-1,-6.8185604E-1,-1.7138895E-1,-6.825808E-2,-2.5321996E-1,1.0041604E-1,9.7433954E-2,4.6849642E-2,-5.8399517E-2,4.339465E-1,-4.8625207E-1,-6.462403E-1,-1.8058166E-1,5.772765E-1,-3.6769274E-1,1.4892949E-1,8.9378364E-2,1.7168963E-2,-2.648539E-2,-4.915352E-1,2.667402E-1,4.8066923E-1,1.6718103E-1,7.274917E-1,5.7661915E-1,-2.2331871E-2,3.4113568E-1,9.4750714E-1,-3.82972E-1,1.4483131E-2,2.6734853E-1,1.1547892E-3,-4.32983E-2,4.5804597E-2,-5.631877E-2,-2.1035051E-2,9.738253E-2,-2.7778625E-1,5.1064946E-2,6.1530075E-3,-5.2846845E-2,6.6345944E-3,-6.877062E-2,-4.4069514E-2,-6.9607876E-2,-4.844964E-2,2.5414987E-2,-2.3873009E-2,-7.487104E-4,-4.6133008E-2,6.8181604E-2,1.8987626E-2,-5.4816198E-2,-2.4649117E-2,-3.5955466E-2,-6.745601E-2,4.581764E-2,-4.674459E-2,7.399086E-2,3.3290654E-2,-3.3293437E-2,-6.7034476E-2,2.8908676E-2,3.1401252E-3,1.3626185E-2,-1.5189554E-2,-3.4909137E-2,-5.7657428E-2,3.2403022E-2,-5.2307744E-2,8.1192434E-2,1.9974208E-2,3.2279804E-2,-6.0150266E-2,3.4926504E-2,8.301985E-2,2.4031578E-2,6.699101E-2,-1.5294313E-2,8.425804E-2,1.0270851E-1,5.8209386E-2,-5.2850563E-2,-2.689074E-2,1.4496121E-2,5.4810382E-2,1.2471347E-2,-2.472008E-3,-1.8281443E-3,5.5099208E-2,-2.0503564E-2,-4.970738E-2],"categories":[],"categories_nodes":[],"categories_segments":[],"categories_sizes":[],"default_left":[0,0,0,0,0,0,0,0,0,0,0,0,0,0,0,0,0,0,0,0,0,0,0,0,0,0,0,0,0,0,0,0,0,0,0,0,0,0,0,0,0,0,0,0,0,0,0,0,0,0,0,0,0,0,0,0,0,0,0,0,0,0,0,0,0,0,0,0,0,0,0,0,0,0,0,0,0,0,0,0,0,0,0,0,0,0,0,0,0,0,0,0,0,0,0,0,0,0,0,0,0,0,0,0,0,0,0,0,0,0,0,0,0,0,0,0,0,0,0,0,0,0,0,0,0,0,0,0,0,0,0,0,0,0,0,0,0,0,0,0,0,0,0,0,0,0,0,0,0,0,0,0,0,0,0,0,0,0,0,0,0,0,0,0,0,0,0,0,0,0,0,0,0,0,0,0,0],"id":3,"left_children":[1,3,5,7,9,11,13,15,17,19,21,23,25,-1,-1,27,29,31,33,35,37,39,41,43,45,47,49,-1,51,53,55,-1,-1,-1,-1,-1,57,-1,59,61,63,65,67,-1,69,71,73,75,77,79,81,-1,-1,-1,83,85,87,89,91,-1,-1,93,95,97,99,101,103,-1,105,-1,-1,107,109,-1,111,113,115,117,119,-1,-1,121,-1,123,125,127,129,131,-1,133,-1,-1,-1,-1,135,137,139,141,143,145,147,-1,-1,149,151,153,155,157,159,161,-1,163,165,167,-1,169,-1,-1,171,-1,-1,173,175,-1,-1,-1,-1,-1,-1,-1,-1,-1,-1,-1,-1,-1,-1,-1,-1,-1,-1,-1,-1,-1,-1,-1,-1,-1,-1,-1,-1,-1,-1,-1,-1,-1,-1,-1,-1,-1,-1,-1,-1,-1,-1,-1,-1,-1,-1,-1,-1,-1,-1,-1,-1,-1,-1],"loss_changes":[1.0805747E4,4.587732E2,1.9967773E2,6.923242E1,1.5426419E2,2.5918896E2,4.5097656E0,5.967874E1,2.2172607E1,1.27438156E2,3.628816E1,6.0640625E1,1.7312656E1,0E0,0E0,2.986494E0,1.260199E1,3.7877197E0,1.4489031E-1,6.9914276E1,3.269348E-1,1.2464039E1,2.6467745E1,5.2093506E0,2.9854065E1,2.5374012E0,1.0198095E1,0E0,5.4906654E-1,6.3997393E0,9.739426E0,0E0,0E0,0E0,0E0,0E0,4.4224022E1,0E0,4.2892814E-1,7.7901955E0,7.8630753E0,2.6844267E1,3.6396332E0,0E0,2.32312E0,6.4511642E0,1.2183533E1,4.9711294E0,9.3310356E-1,2.7152824E-1,4.2856827E0,0E0,0E0,0E0,1.2205873E1,5.2220917E0,1.5867886E1,6.560832E0,5.914078E-1,0E0,0E0,1.7157623E1,8.447647E-1,1.0365364E1,8.618047E0,3.201602E0,3.5783424E0,0E0,1.0747719E0,0E0,0E0,8.905022E0,5.8082085E0,0E0,1.5308533E1,1.5348597E0,2.1995676E-1,1.2860577E0,1.6823292E-1,0E0,0E0,2.0302331E0,0E0,1.9825057E0,4.0342264E0,2.1864853E0,3.002472E-1,5.175023E0,0E0,3.6823378E0,0E0,0E0,0E0,0E0,1.4941363E0,1.6462002E0,3.1193542E-1,8.616966E0,7.825594E-1,1.2851429E0,6.29405E-1,0E0,0E0,4.8199707E-1,7.312641E-1,2.8529234E0,4.9311876E0,4.645218E0,5.8983154E0,2.4366999E-1,0E0,1.297569E1,8.77771E0,5.451026E-1,0E0,5.031599E-1,0E0,0E0,6.898759E-2,0E0,0E0,2.3140347E0,1.531297E-1,0E0,0E0,0E0,0E0,0E0,0E0,0E0,0E0,0E0,0E0,0E0,0E0,0E0,0E0,0E0,0E0,0E0,0E0,0E0,0E0,0E0,0E0,0E0,0E0,0E0,0E0,0E0,0E0,0E0,0E0,0E0,0E0,0E0,0E0,0E0,0E0,0E0,0E0,0E0,0E0,0E0,0E0,0E0,0E0,0E0,0E0,0E0,0E0,0E0,0E0,0E0,0E0,0E0,0E0],"parents":[2147483647,0,0,1,1,2,2,3,3,4,4,5,5,6,6,7,7,8,8,9,9,10,10,11,11,12,12,15,15,16,16,17,17,18,18,19,19,20,20,21,21,22,22,23,23,24,24,25,25,26,26,28,28,29,29,30,30,36,36,38,38,39,39,40,40,41,41,42,42,44,44,45,45,46,46,47,47,48,48,49,49,50,50,54,54,55,55,56,56,57,57,58,58,61,61,62,62,63,63,64,64,65,65,66,66,68,68,71,71,72,72,74,74,75,75,76,76,77,77,78,78,81,81,83,83,84,84,85,85,86,86,87,87,89,89,94,94,95,95,96,96,97,97,98,98,99,99,100,100,103,103,104,104,105,105,106,106,107,107,108,108,109,109,111,111,112,112,113,113,115,115,118,118,121,121,122,122],"right_children":[2,4,6,8,10,12,14,16,18,20,22,24,26,-1,-1,28,30,32,34,36,38,40,42,44,46,48,50,-1,52,54,56,-1,-1,-1,-1,-1,58,-1,60,62,64,66,68,-1,70,72,74,76,78,80,82,-1,-1,-1,84,86,88,90,92,-1,-1,94,96,98,100,102,104,-1,106,-1,-1,108,110,-1,112,114,116,118,120,-1,-1,122,-1,124,126,128,130,132,-1,134,-1,-1,-1,-1,136,138,140,142,144,146,148,-1,-1,150,152,154,156,158,160,162,-1,164,166,168,-1,170,-1,-1,172,-1,-1,174,176,-1,-1,-1,-1,-1,-1,-1,-1,-1,-1,-1,-1,-1,-1,-1,-1,-1,-1,-1,-1,-1,-1,-1,-1,-1,-1,-1,-1,-1,-1,-1,-1,-1,-1,-1,-1,-1,-1,-1,-1,-1,-1,-1,-1,-1,-1,-1,-1,-1,-1,-1,-1,-1,-1],"split_conditions":[2.28E2,6.4E1,8.1E2,1E0,1.49E2,7.83E2,1.035E3,1.4E1,1.4E1,1E0,5.38466E-1,5.58E2,7.94E2,1.18850194E-1,1.2883765E-1,1.8242936E-1,3.3E1,1E0,6.689341E-1,1.26E2,4.6365076E-1,1.74E2,1.74E2,2.49E2,6.09E2,6.689341E-1,3.4454298E-1,3.6740635E-2,7.7954787E-1,1.09441996E-1,5.546802E-1,-7.193758E-2,5.7491404E-3,1.0735474E-1,4.1580122E-2,1.2908854E-1,1.32E2,-6.8679385E-2,6.689341E-1,1.62E2,1.20671146E-1,1.62E2,5.5638045E-1,9.443592E-2,5.13E2,8.9435333E-1,6.82E2,7.88E2,7.88E2,5.3579234E-2,9.727458E-1,1.1902296E-1,5.419143E-2,-5.4033767E-2,7.7954787E-1,3.4454298E-1,6.2E1,1E0,8.9435333E-1,-2.3409761E-3,-4.9152307E-2,1.09441996E-1,1.71E2,1.95E2,4.3778753E-1,8.9435333E-1,6.689341E-1,8.568681E-2,8.88889E-1,1.2883197E-1,1.10079944E-1,8.472447E-2,5.93E2,1.17557906E-1,6.92E2,5.088187E-1,5.5638045E-1,8.757496E-1,9.6016735E-1,4.470536E-2,8.713906E-2,7.7954787E-1,7.270053E-2,1.20671146E-1,1E0,3.4E1,5.4E1,5.5638045E-1,-6.825808E-2,6.689341E-1,1.0041604E-1,9.7433954E-2,4.6849642E-2,-5.8399517E-2,2.2235523E-1,3.3125752E-1,1.20671146E-1,1.89E2,2.17E2,3.4454298E-1,2E2,8.9378364E-2,1.7168963E-2,1.69E2,8.9435333E-1,7.7954787E-1,8.9435333E-1,8.656944E-3,5.68E2,5.68E2,-2.2331871E-2,3.002672E-1,7.7E2,8.472447E-2,1.4483131E-2,3.705681E-1,1.1547892E-3,-4.32983E-2,8.9435333E-1,-5.631877E-2,-2.1035051E-2,7.6755345E-1,8.9435333E-1,5.1064946E-2,6.1530075E-3,-5.2846845E-2,6.6345944E-3,-6.877062E-2,-4.4069514E-2,-6.9607876E-2,-4.844964E-2,2.5414987E-2,-2.3873009E-2,-7.487104E-4,-4.6133008E-2,6.8181604E-2,1.8987626E-2,-5.4816198E-2,-2.4649117E-2,-3.5955466E-2,-6.745601E-2,4.581764E-2,-4.674459E-2,7.399086E-2,3.3290654E-2,-3.3293437E-2,-6.7034476E-2,2.8908676E-2,3.1401252E-3,1.3626185E-2,-1.5189554E-2,-3.4909137E-2,-5.7657428E-2,3.2403022E-2,-5.2307744E-2,8.1192434E-2,1.9974208E-2,3.2279804E-2,-6.0150266E-2,3.4926504E-2,8.301985E-2,2.4031578E-2,6.699101E-2,-1.5294313E-2,8.425804E-2,1.0270851E-1,5.8209386E-2,-5.2850563E-2,-2.689074E-2,1.4496121E-2,5.4810382E-2,1.2471347E-2,-2.472008E-3,-1.8281443E-3,5.5099208E-2,-2.0503564E-2,-4.970738E-2],"split_indices":[0,0,0,3,0,0,0,0,0,4,1,0,0,0,0,1,0,4,1,0,1,0,0,0,0,1,1,0,1,1,1,0,0,0,0,0,0,0,1,0,1,0,1,0,0,1,0,0,0,1,1,0,0,0,1,1,0,3,1,0,0,1,0,0,1,1,1,0,1,0,0,1,0,0,0,1,1,1,1,0,0,1,0,1,1,0,0,1,0,1,0,0,0,0,1,1,1,0,0,1,0,0,0,0,1,1,1,1,0,0,0,1,0,1,0,1,0,0,1,0,0,1,1,0,0,0,0,0,0,0,0,0,0,0,0,0,0,0,0,0,0,0,0,0,0,0,0,0,0,0,0,0,0,0,0,0,0,0,0,0,0,0,0,0,0,0,0,0,0,0,0,0,0,0,0,0,0],"split_type":[0,0,0,0,0,0,0,0,0,0,0,0,0,0,0,0,0,0,0,0,0,0,0,0,0,0,0,0,0,0,0,0,0,0,0,0,0,0,0,0,0,0,0,0,0,0,0,0,0,0,0,0,0,0,0,0,0,0,0,0,0,0,0,0,0,0,0,0,0,0,0,0,0,0,0,0,0,0,0,0,0,0,0,0,0,0,0,0,0,0,0,0,0,0,0,0,0,0,0,0,0,0,0,0,0,0,0,0,0,0,0,0,0,0,0,0,0,0,0,0,0,0,0,0,0,0,0,0,0,0,0,0,0,0,0,0,0,0,0,0,0,0,0,0,0,0,0,0,0,0,0,0,0,0,0,0,0,0,0,0,0,0,0,0,0,0,0,0,0,0,0,0,0,0,0,0,0],"sum_hessian":[1.9731408E4,5.0555425E3,1.4675865E4,3.8584697E3,1.1970729E3,2.0947883E3,1.2581076E4,1.1046732E3,2.7537966E3,3.8228604E2,8.147868E2,1.863786E3,2.3100243E2,7.1543976E2,1.1865637E4,3.3906807E1,1.0707665E3,2.7459978E3,7.798717E0,3.1512003E2,6.7166016E1,5.458315E2,2.689553E2,1.01958636E3,8.441996E2,1.3457503E2,9.642741E1,1.0927826E1,2.2978981E1,2.1205573E2,8.587107E2,2.7401174E3,5.880266E0,4.118166E0,3.6805515E0,1.7465805E2,1.4046198E2,5.291365E1,1.4252364E1,2.7720752E2,2.68624E2,1.3716983E2,1.3178548E2,7.819631E1,9.413901E2,2.3265659E2,6.11543E2,7.546391E1,5.9111115E1,2.6976994E1,6.945042E1,1.7483335E1,5.4956455E0,5.1244774E1,1.6081096E2,5.889561E2,2.6975458E2,7.500591E1,6.545607E1,3.0155997E0,1.1236764E1,6.5420654E1,2.1178685E2,7.3046455E1,1.9557753E2,2.9297798E1,1.0787203E2,1.9022123E1,1.1276335E2,7.908823E2,1.5050774E2,1.9854825E2,3.410834E1,2.3040652E2,3.8113647E2,5.201763E1,2.3446278E1,2.0851662E1,3.8259453E1,7.7009387E0,1.9276056E1,6.2125324E1,7.325091E0,8.503611E1,7.577485E1,2.9695175E2,2.920044E2,1.769027E2,9.2851875E1,7.180356E1,3.202353E0,5.8683193E1,6.7728734E0,3.791442E1,2.7506231E1,1.25980125E2,8.580673E1,4.4418728E1,2.862773E1,1.5596104E2,3.9616486E1,1.8941565E1,1.0356233E1,2.1122057E1,8.674998E1,5.779479E1,5.4968563E1,3.591822E1,1.6263002E2,1.5625396E1,1.8482944E1,5.027092E1,3.3086557E2,4.6714165E1,5.303467E0,1.8235209E1,5.211071E0,1.2116619E1,8.735043E0,3.3851536E1,4.407914E0,4.1659443E1,2.046588E1,1.03700285E1,7.466608E1,6.2545147E1,1.3229704E1,4.9358124E1,2.4759363E2,2.6907443E2,2.2929949E1,2.3512129E1,1.5339056E2,3.371599E1,3.8087574E1,1.2375818E1,1.5130413E1,9.8567795E1,2.7412333E1,9.509286E0,7.629745E1,1.3435902E1,3.0982826E1,1.548177E1,1.314596E1,1.4245154E2,1.350952E1,1.6881763E1,2.2734722E1,8.800392E0,1.2321664E1,3.5159107E1,5.159087E1,5.4663994E1,3.1307948E0,2.4020567E1,3.0947996E1,3.0558037E1,5.360185E0,3.6066483E1,1.2656354E2,4.557872E0,1.1067524E1,2.5641073E1,2.4629848E1,2.6968774E2,6.117782E1,1.8224714E1,2.848945E1,1.4214549E1,4.0206585E0,4.3565145E0,4.3785276E0,3.393714E1,7.7223034E0,1.7453543E1,3.0123367E0],"tree_param":{"num_deleted":"0","num_feature":"5","num_nodes":"177","size_leaf_vector":"1"}},{"base_weights":[-3.8868865E-1,1.2757405E0,-7.20628E-2,-5.7999057E-1,1.2949761E0,-2.6311358E-2,-6.832942E-2,1.2968552E-1,6.2928847E-3],"categories":[],"categories_nodes":[],"categories_segments":[],"categories_sizes":[],"default_left":[0,0,0,0,0,0,0,0,0],"id":4,"left_children":[1,3,-1,5,7,-1,-1,-1,-1],"loss_changes":[1.024289E4,1.1101172E2,0E0,7.502489E-1,6.831543E0,0E0,0E0,0E0,0E0],"parents":[2147483647,0,0,1,1,3,3,4,4],"right_children":[2,4,-1,6,8,-1,-1,-1,-1],"split_conditions":[1.4E1,1E0,-7.20628E-2,2E0,1E0,-2.6311358E-2,-6.832942E-2,1.2968552E-1,6.2928847E-3],"split_indices":[0,3,0,2,4,0,0,0,0],"split_type":[0,0,0,0,0,0,0,0,0],"sum_hessian":[1.8536426E4,3.081463E3,1.5454963E4,3.1200884E1,3.0502622E3,8.955355E0,2.224553E1,3.0454727E3,4.7894244E0],"tree_param":{"num_deleted":"0","num_feature":"5","num_nodes":"9","size_leaf_vector":"1"}},{"base_weights":[-4.6352544E-1,-1.4538413E-1,-6.4225274E-1,-6.655557E-1,2.5202382E-1,-4.8619866E-1,-7.068717E-1,-7.175871E-1,8.887174E-1,5.667825E-1,-4.3522232E-4,-6.623247E-1,-4.0190738E-1,-6.381425E-2,-7.0990376E-2,-4.4770807E-1,-7.2128616E-2,1.0559584E0,5.806688E-1,1.1310005E-1,4.1887003E-1,-2.461604E-1,2.1813889E-1,-6.113012E-1,-6.798375E-2,3.0598235E-1,-5.229676E-1,-4.9971986E-1,6.2192758E-3,5.3098917E-1,1.1487802E-1,4.7555965E-1,7.6077E-2,-5.3176945E-1,5.6961876E-1,-8.217491E-2,-4.5700154E-1,6.6671175E-1,-2.307094E-1,-6.503797E-2,-4.391773E-1,8.3895266E-2,5.394263E-1,-5.656811E-1,1.089461E-1,-3.9940426E-1,-6.06392E-2,6.735449E-2,2.3599852E-2,5.7497717E-2,2.1359194E-3,-4.4166827E-1,-6.206817E-1,7.730392E-1,1.2485462E-1,2.119852E-2,-4.945552E-1,-4.0283963E-1,-6.189827E-2,8.022746E-1,4.2632365E-1,-3.9254403E-1,9.1657716E-1,-2.2479391E-1,-5.2860834E-2,-1.3470925E-1,3.3461607E-1,7.41189E-1,2.925515E-1,-6.2361E-1,-5.2403814E-1,6.811714E-1,-4.8177667E-2,-5.1804435E-2,-0E0,-2.912808E-1,-4.732461E-2,-6.78214E-2,-5.0645256E-1,5.3573614E-1,1.0785036E0,-2.6479712E-1,2.0463757E-1,-2.2222452E-1,3.8026538E-1,-5.6328274E-2,-2.3302875E-1,-4.529529E-1,4.4896852E-2,5.643228E-1,8.8642305E-1,1.7724584E-1,8.381729E-1,3.2180876E-1,-5.3819954E-1,5.755297E-1,1.1573136E0,-4.8263617E-2,1.5169442E-2,-3.3167534E-2,-3.3422658E-1,7.637395E-1,1.5131772E-1,8.4698063E-1,7.1629514E-3,-8.17909E-3,3.6633596E-1,-4.4942424E-1,-6.754089E-2,5.539389E-1,-6.071412E-1,9.8777026E-2,-3.2863926E-2,-3.7188378E-1,8.6584084E-2,-4.0130466E-2,-1.0399039E-2,-5.85625E-2,-3.6190126E-2,3.4527622E-2,1.0776953E-1,1.1453563E-1,6.177565E-2,-1.5541822E-2,-4.17705E-2,1.1948352E-1,1.6278846E-2,1.9095732E-2,-5.7653483E-2,8.750581E-2,8.866783E-3,-3.1778138E-2,-0E0,-2.5851503E-2,-5.1877834E-2,2.2011332E-2,-1.6879251E-2,2.3326186E-2,1.1465087E-1,1.01670384E-1,7.2173E-2,-5.8143446E-3,3.5315555E-2,9.627689E-2,3.5190355E-2,7.306041E-2,-5.5010904E-2,-6.321475E-2,-4.753704E-2,2.8414443E-2,6.4493835E-2,1.252817E-1,6.8771355E-2,-1.33344E-2,1.5720645E-2,9.435004E-3,-4.8692152E-2,1.0221159E-1,2.3724785E-2,-1.4332267E-2,3.470164E-2,5.338178E-2,9.755008E-2,-2.5252298E-2,2.1616392E-2,2.2430614E-2,5.9544176E-2,-6.9508664E-2,-1.1243728E-2,7.878565E-2,-1.1039156E-2,-6.64803E-2,-4.9884513E-2,-2.3761922E-2,-4.7537584E-2,6.534391E-2,-1.3367626E-2],"categories":[],"categories_nodes":[],"categories_segments":[],"categories_sizes":[],"default_left":[0,0,0,0,0,0,0,0,0,0,0,0,0,0,0,0,0,0,0,0,0,0,0,0,0,0,0,0,0,0,0,0,0,0,0,0,0,0,0,0,0,0,0,0,0,0,0,0,0,0,0,0,0,0,0,0,0,0,0,0,0,0,0,0,0,0,0,0,0,0,0,0,0,0,0,0,0,0,0,0,0,0,0,0,0,0,0,0,0,0,0,0,0,0,0,0,0,0,0,0,0,0,0,0,0,0,0,0,0,0,0,0,0,0,0,0,0,0,0,0,0,0,0,0,0,0,0,0,0,0,0,0,0,0,0,0,0,0,0,0,0,0,0,0,0,0,0,0,0,0,0,0,0,0,0,0,0,0,0,0,0,0,0,0,0,0,0,0,0,0,0,0,0,0,0,0,0],"id":5,"left_children":[1,3,5,7,9,11,13,15,17,19,21,23,25,-1,-1,27,-1,29,31,-1,33,35,37,39,-1,41,43,45,-1,47,-1,49,-1,51,53,55,57,59,61,-1,63,65,67,69,71,73,-1,-1,-1,-1,-1,75,77,79,81,83,85,87,-1,89,91,93,95,97,-1,99,101,103,105,107,109,111,113,-1,-1,115,-1,-1,117,119,121,123,125,127,129,-1,131,133,135,137,139,141,143,145,147,149,151,-1,-1,153,155,157,159,161,163,-1,165,167,-1,169,171,-1,-1,173,175,-1,-1,-1,-1,-1,-1,-1,-1,-1,-1,-1,-1,-1,-1,-1,-1,-1,-1,-1,-1,-1,-1,-1,-1,-1,-1,-1,-1,-1,-1,-1,-1,-1,-1,-1,-1,-1,-1,-1,-1,-1,-1,-1,-1,-1,-1,-1,-1,-1,-1,-1,-1,-1,-1,-1,-1,-1,-1,-1,-1,-1,-1],"loss_changes":[1.0518911E3,1.3764543E3,1.18930664E2,2.3396179E2,3.0001544E2,5.113867E1,1.0668945E0,2.2818604E0,3.9373398E0,1.3950336E2,1.1262642E2,3.7478638E-1,2.0181827E2,0E0,0E0,1.1755095E0,0E0,1.9834595E0,1.22039795E-1,0E0,1.9144211E2,3.403893E1,2.236273E2,1.566597E0,0E0,1.7728344E1,5.435913E1,1.2838364E-2,0E0,1.9281602E-1,0E0,1.1099997E0,0E0,1.0310211E0,1.03974945E2,2.3809631E1,3.3836823E0,1.7564865E1,1.034985E2,0E0,9.264517E-1,9.83172E0,7.973072E0,4.034607E0,1.1619213E1,1.134078E0,0E0,0E0,0E0,0E0,0E0,2.122364E-1,5.1620483E-2,5.6391266E1,1.1342566E1,3.9136192E1,1.7743053E0,7.407345E0,0E0,6.33255E0,2.0553143E1,5.0968826E1,4.6876526E0,2.0611868E0,0E0,1.8897753E0,6.336273E0,6.9810753E0,2.2043195E0,6.5612183E0,9.929053E1,9.065827E0,4.4939914E0,0E0,0E0,3.1697452E-1,0E0,0E0,5.1448822E-2,4.555368E1,9.567841E0,9.016814E-1,1.2152143E1,3.920563E1,2.5921362E1,0E0,5.299648E-1,3.5318604E0,1.3163476E0,1.803634E1,4.4968567E0,5.363511E0,4.0703354E0,3.0164753E1,1.922905E0,3.158903E-1,5.2360153E-1,0E0,0E0,1.2646561E0,2.177398E0,2.9194565E0,3.548647E0,2.4234428E0,7.568188E-1,0E0,1.8780746E0,1.496056E1,0E0,1.2533211E1,5.88916E0,0E0,0E0,2.1380758E-1,9.197009E0,0E0,0E0,0E0,0E0,0E0,0E0,0E0,0E0,0E0,0E0,0E0,0E0,0E0,0E0,0E0,0E0,0E0,0E0,0E0,0E0,0E0,0E0,0E0,0E0,0E0,0E0,0E0,0E0,0E0,0E0,0E0,0E0,0E0,0E0,0E0,0E0,0E0,0E0,0E0,0E0,0E0,0E0,0E0,0E0,0E0,0E0,0E0,0E0,0E0,0E0,0E0,0E0,0E0,0E0,0E0,0E0,0E0,0E0,0E0,0E0,0E0,0E0],"parents":[2147483647,0,0,1,1,2,2,3,3,4,4,5,5,6,6,7,7,8,8,9,9,10,10,11,11,12,12,15,15,17,17,18,18,20,20,21,21,22,22,23,23,25,25,26,26,27,27,29,29,31,31,33,33,34,34,35,35,36,36,37,37,38,38,40,40,41,41,42,42,43,43,44,44,45,45,51,51,52,52,53,53,54,54,55,55,56,56,57,57,59,59,60,60,61,61,62,62,63,63,65,65,66,66,67,67,68,68,69,69,70,70,71,71,72,72,75,75,78,78,79,79,80,80,81,81,82,82,83,83,84,84,86,86,87,87,88,88,89,89,90,90,91,91,92,92,93,93,94,94,95,95,96,96,99,99,100,100,101,101,102,102,103,103,104,104,106,106,107,107,109,109,110,110,113,113,114,114],"right_children":[2,4,6,8,10,12,14,16,18,20,22,24,26,-1,-1,28,-1,30,32,-1,34,36,38,40,-1,42,44,46,-1,48,-1,50,-1,52,54,56,58,60,62,-1,64,66,68,70,72,74,-1,-1,-1,-1,-1,76,78,80,82,84,86,88,-1,90,92,94,96,98,-1,100,102,104,106,108,110,112,114,-1,-1,116,-1,-1,118,120,122,124,126,128,130,-1,132,134,136,138,140,142,144,146,148,150,152,-1,-1,154,156,158,160,162,164,-1,166,168,-1,170,172,-1,-1,174,176,-1,-1,-1,-1,-1,-1,-1,-1,-1,-1,-1,-1,-1,-1,-1,-1,-1,-1,-1,-1,-1,-1,-1,-1,-1,-1,-1,-1,-1,-1,-1,-1,-1,-1,-1,-1,-1,-1,-1,-1,-1,-1,-1,-1,-1,-1,-1,-1,-1,-1,-1,-1,-1,-1,-1,-1,-1,-1,-1,-1,-1,-1],"split_conditions":[1.26E2,2E0,4.66E2,1E0,3.2E1,2.27E2,5.09E2,1E0,4.3148518E-1,3E0,8.2E1,1.52E2,2.43E2,-6.381425E-2,-7.0990376E-2,8.9435333E-1,-7.2128616E-2,1.20671146E-1,8.9435333E-1,1.1310005E-1,1E1,4.9869382E-1,9.5E1,1.47E2,-6.798375E-2,5.5638045E-1,4.56E2,5.291262E-1,6.2192758E-3,3.1119997E-2,1.1487802E-1,8.7185055E-1,7.6077E-2,5.38466E-1,5.546802E-1,6.7E1,6.7E1,5.38466E-1,1.25E2,-6.503797E-2,2.2235523E-1,2.37E2,2.33E2,3.32E2,8.472447E-2,3.4454298E-1,-6.06392E-2,6.735449E-2,2.3599852E-2,5.7497717E-2,2.1359194E-3,2.5519254E-2,7.7954787E-1,3.4454298E-1,5.5638045E-1,5.6E1,3.4454298E-1,6.4E1,-6.189827E-2,1.20671146E-1,8.9435333E-1,1.09441996E-1,6.689341E-1,1.20671146E-1,-5.2860834E-2,2.33E2,8.472447E-2,9.727458E-1,6.689341E-1,2.57E2,3.36E2,4.61E2,3.4454298E-1,-5.1804435E-2,-0E0,7E0,-4.732461E-2,-6.78214E-2,7E0,3E1,2.4E1,2.2E1,6.5154743E-1,4E1,5.8E1,-5.6328274E-2,7.9E1,4E1,8.454122E-1,9.4E1,8.7E1,6.689341E-1,8.9E1,1.08E2,1.07E2,1.20671146E-1,8.757496E-1,-4.8263617E-2,1.5169442E-2,3.4454298E-1,6.319019E-2,2.4E2,2.4E2,2.3E2,2.3E2,-8.17909E-3,2.4E2,2.52E2,-6.754089E-2,5.449745E-1,4.16E2,9.8777026E-2,-3.2863926E-2,4.61E2,5.291262E-1,-4.0130466E-2,-1.0399039E-2,-5.85625E-2,-3.6190126E-2,3.4527622E-2,1.0776953E-1,1.1453563E-1,6.177565E-2,-1.5541822E-2,-4.17705E-2,1.1948352E-1,1.6278846E-2,1.9095732E-2,-5.7653483E-2,8.750581E-2,8.866783E-3,-3.1778138E-2,-0E0,-2.5851503E-2,-5.1877834E-2,2.2011332E-2,-1.6879251E-2,2.3326186E-2,1.1465087E-1,1.01670384E-1,7.2173E-2,-5.8143446E-3,3.5315555E-2,9.627689E-2,3.5190355E-2,7.306041E-2,-5.5010904E-2,-6.321475E-2,-4.753704E-2,2.8414443E-2,6.4493835E-2,1.252817E-1,6.8771355E-2,-1.33344E-2,1.5720645E-2,9.435004E-3,-4.8692152E-2,1.0221159E-1,2.3724785E-2,-1.4332267E-2,3.470164E-2,5.338178E-2,9.755008E-2,-2.5252298E-2,2.1616392E-2,2.2430614E-2,5.9544176E-2,-6.9508664E-2,-1.1243728E-2,7.878565E-2,-1.1039156E-2,-6.64803E-2,-4.9884513E-2,-2.3761922E-2,-4.7537584E-2,6.534391E-2,-1.3367626E-2],"split_indices":[2,2,2,4,2,2,2,3,1,2,2,2,2,0,0,1,0,1,1,0,2,1,2,2,0,1,2,1,0,1,0,1,0,1,1,2,2,1,2,0,1,2,2,2,1,1,0,0,0,0,0,1,1,1,1,2,1,2,0,1,1,1,1,1,0,2,1,1,1,2,2,2,1,0,0,2,0,0,2,2,2,2,1,2,2,0,2,2,1,2,2,1,2,2,2,1,1,0,0,1,1,2,2,2,2,0,2,2,0,1,2,0,0,2,1,0,0,0,0,0,0,0,0,0,0,0,0,0,0,0,0,0,0,0,0,0,0,0,0,0,0,0,0,0,0,0,0,0,0,0,0,0,0,0,0,0,0,0,0,0,0,0,0,0,0,0,0,0,0,0,0,0,0,0,0,0,0],"split_type":[0,0,0,0,0,0,0,0,0,0,0,0,0,0,0,0,0,0,0,0,0,0,0,0,0,0,0,0,0,0,0,0,0,0,0,0,0,0,0,0,0,0,0,0,0,0,0,0,0,0,0,0,0,0,0,0,0,0,0,0,0,0,0,0,0,0,0,0,0,0,0,0,0,0,0,0,0,0,0,0,0,0,0,0,0,0,0,0,0,0,0,0,0,0,0,0,0,0,0,0,0,0,0,0,0,0,0,0,0,0,0,0,0,0,0,0,0,0,0,0,0,0,0,0,0,0,0,0,0,0,0,0,0,0,0,0,0,0,0,0,0,0,0,0,0,0,0,0,0,0,0,0,0,0,0,0,0,0,0,0,0,0,0,0,0,0,0,0,0,0,0,0,0,0,0,0,0],"sum_hessian":[1.8501639E4,6.6561606E3,1.1845479E4,2.8825725E3,3.7735884E3,3.4721199E3,8.373358E3,2.7898875E3,9.268498E1,1.6790719E3,2.0945164E3,1.1208E3,2.3513198E3,3.659064E2,8.007452E3,4.0067955E1,2.7498196E3,5.797305E1,3.4711937E1,3.4695312E2,1.3321188E3,9.8616125E2,1.1083552E3,2.9886127E2,8.219388E2,3.4299942E2,2.0083206E3,3.6558887E1,3.5090675E0,1.0083889E1,4.788916E1,2.5028736E1,9.6832E0,1.8182326E2,1.1502955E3,5.5592365E2,4.302376E2,5.541678E2,5.5418744E2,2.4037247E2,5.8488796E1,1.7683086E2,1.6616856E2,1.8814313E3,1.2688928E2,2.2257868E1,1.4301021E1,5.5317297E0,4.55216E0,2.009171E1,4.937026E0,9.442313E1,8.740013E1,7.8853503E2,3.617604E2,4.4521515E2,1.1070849E2,3.260256E2,1.0421202E2,3.522829E2,2.0188489E2,4.8644653E2,6.7740875E1,1.878707E1,3.9701725E1,9.454932E1,8.228154E1,8.989363E1,7.627493E1,7.788344E2,1.1025968E3,2.6610664E1,1.0027862E2,1.6969564E1,5.288303E0,1.9064665E1,7.535846E1,5.360262E1,3.3797516E1,4.4582416E2,3.427109E2,6.0797165E1,3.0096326E2,2.6544214E2,1.79773E2,8.627023E1,2.4438257E1,2.9339633E2,3.2629257E1,9.4760025E1,2.575229E2,1.2702318E2,7.486171E1,8.2025085E1,4.0442145E2,2.9886044E1,3.785483E1,1.1107355E1,7.6797137E0,6.3919186E1,3.0630133E1,2.332631E1,5.8955235E1,7.8289276E1,1.160435E1,1.2314145E1,6.396079E1,1.8162402E2,5.972104E2,7.8344444E1,1.0242523E3,2.0508953E1,6.1017113E0,2.9073303E1,7.1205315E1,1.0809478E1,8.255187E0,1.9024303E1,1.4773213E1,3.314812E2,1.1434296E2,2.9753906E2,4.5171856E1,3.7235416E1,2.3561749E1,1.0766434E1,2.901968E2,1.22665634E2,1.4277652E2,6.564324E1,1.14129745E2,1.7834347E1,6.6039104E0,7.608507E1,2.1731128E2,1.816588E1,1.4463377E1,6.1589577E1,3.3170452E1,1.3997789E2,1.1754499E2,5.4427383E1,7.2595795E1,5.8492695E1,1.6369015E1,5.60537E1,2.5971386E1,1.5707838E2,2.4734308E2,7.202487E0,2.2683556E1,2.9617182E1,8.23765E0,4.2460735E1,2.1458448E1,7.9946804E0,2.2635452E1,1.47621765E1,8.564133E0,2.3453796E1,3.550144E1,2.4806376E1,5.3482903E1,4.84992E0,6.75443E0,4.1219116E1,2.2741674E1,1.0413674E2,7.748728E1,5.788866E1,2.0455786E1,6.6375104E2,3.605013E2,1.479744E1,1.4275864E1,1.9392193E1,5.1813118E1],"tree_param":{"num_deleted":"0","num_feature":"5","num_nodes":"177","size_leaf_vector":"1"}},{"base_weights":[7.240928E-1,-4.3965253E-1,1.099651E0,-6.044444E-1,7.079316E-2,8.4912366E-1,1.141209E0,-4.0123358E-1,-6.883083E-1,5.614332E-1,-1.6247104E-1,9.5480376E-1,-5.8702447E-2,1.0642546E-1,1.1457324E-1,7.856535E-1,-4.4171193E-1,-6.929336E-2,7.763747E-1,7.988221E-1,-5.2633053E-1,1.1288046E-1,-3.7296152E-1,1.0826104E0,7.361902E-1,1.0097339E-1,-2.7107188E-1,2.3827669E-1,9.131958E-2,8.5212725E-1,-4.5711997E-1,9.878137E-2,2.8726785E-2,1.0816633E0,-4.186828E-1,-6.1357564E-1,-2.1794179E-1,-1.7385261E-2,7.67565E-1,8.7619305E-2,-4.9398494E-1,1.1158801E0,4.8244077E-1,-4.1175732E-1,8.3263487E-1,-1.1109096E-1,-4.0182477E-1,-2.9537369E-2,6.285813E-2,1.0930572E-1,2.9324627E-2,-6.31906E-2,-3.8871133E-1,1.1674613E-1,8.282138E-1,-5.939911E-1,7.8320734E-2,-3.2307785E-2,-6.420008E-2,5.8076653E-4,-3.6114234E-2,8.4353644E-1,-1.5657671E-1,6.8056566E-1,1.0559311E-1,8.0137765E-1,-5.948426E-1,-5.5030704E-1,-3.7560633E-1,8.4001225E-1,1.1355885E-1,1.090742E-1,-2.0651744E-1,-5.523403E-1,2.3996131E-1,6.9430405E-1,1.0355734E-1,-3.1285855E-1,9.728902E-2,-4.4414526E-1,-5.108386E-2,1.2041084E-1,-4.7508666E-1,8.650503E-2,4.12118E-1,-6.189387E-2,-3.314301E-2,8.931225E-2,2.9621202E-2,-3.4167522E-1,2.5486985E-1,9.5522486E-2,5.8746934E-1,2.8134307E-2,8.56756E-2,-6.88389E-2,-3.7636373E-2,-4.616413E-1,-6.308345E-1,4.650451E-3,-4.743622E-1,4.6402555E-2,8.80542E-2,3.0431774E-1,-4.483575E-1,-4.1036546E-1,-6.686192E-2,4.7334626E-2,-1.4217309E-2,-1.977833E-1,7.9372954E-1,-4.1436234E-1,2.0856552E-2,-4.675706E-2,4.113074E-1,-5.4419184E-1,-2.7519205E-1,-1.942825E-1,2.0790432E-2,7.930831E-2,-5.237145E-2,7.18173E-3,5.994934E-2,-2.1355147E-2,-6.9054246E-2,3.8771763E-2,-3.5506632E-2,4.1001763E-2,6.675755E-2,-3.5914376E-2,-6.250823E-2,-4.365335E-2,-6.529991E-2,1.5282795E-2,-1.4662772E-2,-3.2611944E-2,-5.8395576E-2,3.80741E-2,1.2123469E-2,-5.796628E-2,-5.018314E-3,-5.5279505E-2,-8.297287E-3,6.5527908E-3,-6.563637E-2,1.0475528E-1,6.579864E-2,-5.2858014E-2,-2.9791508E-2,-1.0205276E-2,2.3521522E-2,1.8325735E-2,-2.6855817E-2,-1.2647204E-2,6.182575E-2,-3.6627248E-2,-5.949402E-2,-1.4159301E-2,-4.5707785E-2,-8.6619025E-3,-2.6942253E-2],"categories":[],"categories_nodes":[],"categories_segments":[],"categories_sizes":[],"default_left":[0,0,0,0,0,0,0,0,0,0,0,0,0,0,0,0,0,0,0,0,0,0,0,0,0,0,0,0,0,0,0,0,0,0,0,0,0,0,0,0,0,0,0,0,0,0,0,0,0,0,0,0,0,0,0,0,0,0,0,0,0,0,0,0,0,0,0,0,0,0,0,0,0,0,0,0,0,0,0,0,0,0,0,0,0,0,0,0,0,0,0,0,0,0,0,0,0,0,0,0,0,0,0,0,0,0,0,0,0,0,0,0,0,0,0,0,0,0,0,0,0,0,0,0,0,0,0,0,0,0,0,0,0,0,0,0,0,0,0,0,0,0,0,0,0,0,0,0,0,0,0,0,0,0,0,0,0,0,0,0,0],"id":6,"left_children":[1,3,5,7,9,11,13,15,17,19,21,23,25,-1,-1,27,29,-1,31,33,35,37,39,41,43,-1,45,47,-1,49,51,-1,-1,53,55,57,59,61,63,65,67,69,71,73,75,77,79,-1,-1,-1,-1,-1,81,-1,83,85,-1,-1,-1,-1,-1,87,89,91,-1,93,95,97,99,101,-1,-1,103,105,107,109,-1,111,113,115,117,-1,119,-1,121,-1,-1,-1,-1,123,125,-1,127,-1,-1,-1,-1,129,131,133,135,-1,-1,137,139,141,-1,-1,-1,143,145,147,149,151,153,155,157,159,-1,-1,-1,-1,-1,-1,-1,-1,-1,-1,-1,-1,-1,-1,-1,-1,-1,-1,-1,-1,-1,-1,-1,-1,-1,-1,-1,-1,-1,-1,-1,-1,-1,-1,-1,-1,-1,-1,-1,-1,-1,-1,-1],"loss_changes":[8.780947E3,4.1247064E2,1.5677148E2,6.271997E1,1.3718188E2,2.0796875E2,2.8496094E0,5.2552765E1,1.8396118E1,1.0026343E2,4.7156727E1,5.3076782E1,5.173733E1,0E0,0E0,2.1484566E0,2.137912E1,0E0,4.3685293E-1,1.09974045E2,1.6353493E0,3.0165636E1,2.5781334E1,2.3588013E1,8.015799E1,0E0,3.8757496E0,2.0485923E0,0E0,1.1882544E0,1.2031601E1,0E0,0E0,4.2530518E0,1.3322389E1,9.654999E-2,5.992194E-1,3.5460663E1,4.3606186E-1,4.7718563E1,2.0950394E0,4.9450684E0,2.8202042E1,5.3685513E0,1.7621246E1,3.74054E0,1.4656544E0,0E0,0E0,0E0,0E0,0E0,1.0387884E2,0E0,5.128746E-1,1.0560989E-2,0E0,0E0,0E0,0E0,0E0,6.808891E-1,1.9548738E1,4.1807175E-1,0E0,9.7556686E-1,6.060314E-1,1.2862167E0,4.6357822E0,6.256676E-1,0E0,0E0,4.141926E0,3.3842182E-1,1.0716066E0,3.565045E1,0E0,1.5749373E0,2.0388467E0,1.2987309E0,5.217576E-1,0E0,4.4434357E1,0E0,4.0289605E-1,0E0,0E0,0E0,0E0,7.6306095E0,6.6267896E0,0E0,1.2917995E-1,0E0,0E0,0E0,0E0,1.6655979E0,8.388519E-2,6.1386544E-1,1.2591133E0,0E0,0E0,4.6797633E-2,1.0729141E0,1.0306687E0,0E0,0E0,0E0,5.0474668E0,1.1387375E1,1.9140768E-1,3.4284613E-1,1.6418244E0,1.7123885E0,1.5145111E-1,7.647772E-1,1.0093421E-2,0E0,0E0,0E0,0E0,0E0,0E0,0E0,0E0,0E0,0E0,0E0,0E0,0E0,0E0,0E0,0E0,0E0,0E0,0E0,0E0,0E0,0E0,0E0,0E0,0E0,0E0,0E0,0E0,0E0,0E0,0E0,0E0,0E0,0E0,0E0,0E0,0E0,0E0,0E0,0E0,0E0,0E0,0E0],"parents":[2147483647,0,0,1,1,2,2,3,3,4,4,5,5,6,6,7,7,8,8,9,9,10,10,11,11,12,12,15,15,16,16,18,18,19,19,20,20,21,21,22,22,23,23,24,24,26,26,27,27,29,29,30,30,33,33,34,34,35,35,36,36,37,37,38,38,39,39,40,40,41,41,42,42,43,43,44,44,45,45,46,46,52,52,54,54,55,55,61,61,62,62,63,63,65,65,66,66,67,67,68,68,69,69,72,72,73,73,74,74,75,75,77,77,78,78,79,79,80,80,82,82,84,84,89,89,90,90,92,92,97,97,98,98,99,99,100,100,103,103,104,104,105,105,109,109,110,110,111,111,112,112,113,113,114,114,115,115,116,116,117,117],"right_children":[2,4,6,8,10,12,14,16,18,20,22,24,26,-1,-1,28,30,-1,32,34,36,38,40,42,44,-1,46,48,-1,50,52,-1,-1,54,56,58,60,62,64,66,68,70,72,74,76,78,80,-1,-1,-1,-1,-1,82,-1,84,86,-1,-1,-1,-1,-1,88,90,92,-1,94,96,98,100,102,-1,-1,104,106,108,110,-1,112,114,116,118,-1,120,-1,122,-1,-1,-1,-1,124,126,-1,128,-1,-1,-1,-1,130,132,134,136,-1,-1,138,140,142,-1,-1,-1,144,146,148,150,152,154,156,158,160,-1,-1,-1,-1,-1,-1,-1,-1,-1,-1,-1,-1,-1,-1,-1,-1,-1,-1,-1,-1,-1,-1,-1,-1,-1,-1,-1,-1,-1,-1,-1,-1,-1,-1,-1,-1,-1,-1,-1,-1,-1,-1,-1],"split_conditions":[2.28E2,6.4E1,8.1E2,1E0,1.49E2,7.83E2,1.035E3,1.4E1,1.4E1,1E0,8.2E1,3.32E2,2.27E2,1.0642546E-1,1.1457324E-1,4.3502897E-2,2E0,-6.929336E-2,6.689341E-1,1.25E2,4.6365076E-1,6.7E1,1.62E2,7.7E2,3.36E2,1.0097339E-1,5.5638045E-1,2E0,9.131958E-2,3.3E1,3E0,9.878137E-2,2.8726785E-2,1.32E2,1.26E2,1.20671146E-1,7.7954787E-1,3.9E1,7.7954787E-1,1.07E2,5.38466E-1,2.49E2,2.52E2,5.449745E-1,6.09E2,7.88E2,9.6016735E-1,-2.9537369E-2,6.285813E-2,1.0930572E-1,2.9324627E-2,-6.31906E-2,3.3E1,1.1674613E-1,8.9435333E-1,8.7185055E-1,7.8320734E-2,-3.2307785E-2,-6.420008E-2,5.8076653E-4,-3.6114234E-2,8.9435333E-1,4.9869382E-1,1.20671146E-1,1.0559311E-1,1.09441996E-1,1.09441996E-1,1.71E2,6.689341E-1,1.09441996E-1,1.1355885E-1,1.090742E-1,5.5638045E-1,6.92E2,6.92E2,4.2E2,1.0355734E-1,4.215216E-1,2.33E2,2.33E2,7.94E2,1.2041084E-1,1E1,8.650503E-2,1.17E2,-6.189387E-2,-3.314301E-2,8.931225E-2,2.9621202E-2,2.17E2,2.17E2,9.5522486E-2,4.3778753E-1,2.8134307E-2,8.56756E-2,-6.88389E-2,-3.7636373E-2,9.4E1,1.20671146E-1,1.71E2,8.9435333E-1,4.6402555E-2,8.80542E-2,3.4454298E-1,8.757496E-1,1.9342159E-1,-6.686192E-2,4.7334626E-2,-1.4217309E-2,8.9435333E-1,4.56E2,8.472447E-2,5.088187E-1,2.3E2,2.5519254E-2,2.3E2,2.4E2,2.4E2,2.0790432E-2,7.930831E-2,-5.237145E-2,7.18173E-3,5.994934E-2,-2.1355147E-2,-6.9054246E-2,3.8771763E-2,-3.5506632E-2,4.1001763E-2,6.675755E-2,-3.5914376E-2,-6.250823E-2,-4.365335E-2,-6.529991E-2,1.5282795E-2,-1.4662772E-2,-3.2611944E-2,-5.8395576E-2,3.80741E-2,1.2123469E-2,-5.796628E-2,-5.018314E-3,-5.5279505E-2,-8.297287E-3,6.5527908E-3,-6.563637E-2,1.0475528E-1,6.579864E-2,-5.2858014E-2,-2.9791508E-2,-1.0205276E-2,2.3521522E-2,1.8325735E-2,-2.6855817E-2,-1.2647204E-2,6.182575E-2,-3.6627248E-2,-5.949402E-2,-1.4159301E-2,-4.5707785E-2,-8.6619025E-3,-2.6942253E-2],"split_indices":[0,0,0,3,0,0,0,0,0,3,2,2,2,0,0,1,2,0,1,2,1,2,0,0,2,0,1,2,0,0,2,0,0,0,2,1,1,2,1,2,1,0,2,1,0,0,1,0,0,0,0,0,0,0,1,1,0,0,0,0,0,1,1,1,0,1,1,0,1,1,0,0,1,0,0,2,0,1,2,2,0,0,2,0,2,0,0,0,0,0,0,0,1,0,0,0,0,2,1,0,1,0,0,1,1,1,0,0,0,1,2,1,1,2,1,2,2,2,0,0,0,0,0,0,0,0,0,0,0,0,0,0,0,0,0,0,0,0,0,0,0,0,0,0,0,0,0,0,0,0,0,0,0,0,0,0,0,0,0,0,0],"split_type":[0,0,0,0,0,0,0,0,0,0,0,0,0,0,0,0,0,0,0,0,0,0,0,0,0,0,0,0,0,0,0,0,0,0,0,0,0,0,0,0,0,0,0,0,0,0,0,0,0,0,0,0,0,0,0,0,0,0,0,0,0,0,0,0,0,0,0,0,0,0,0,0,0,0,0,0,0,0,0,0,0,0,0,0,0,0,0,0,0,0,0,0,0,0,0,0,0,0,0,0,0,0,0,0,0,0,0,0,0,0,0,0,0,0,0,0,0,0,0,0,0,0,0,0,0,0,0,0,0,0,0,0,0,0,0,0,0,0,0,0,0,0,0,0,0,0,0,0,0,0,0,0,0,0,0,0,0,0,0,0,0],"sum_hessian":[2.0088537E4,4.901072E3,1.5187465E4,3.7049453E3,1.1961266E3,2.1648813E3,1.3022583E4,1.0847119E3,2.6202334E3,3.850229E2,8.111037E2,1.9391885E3,2.2569295E2,7.399339E2,1.2282649E4,3.4963623E1,1.0497483E3,2.6126836E3,7.549898E0,3.1638672E2,6.8636185E1,3.51445E2,4.596587E2,1.2204718E3,7.1871674E2,3.6596844E1,1.890961E2,7.405813E0,2.755781E1,1.15108185E1,1.0382374E3,4.2741795E0,3.2757187E0,2.5691766E2,5.9469055E1,5.2322117E1,1.631407E1,2.9396814E2,5.747686E1,9.5545296E1,3.641134E2,1.1552349E3,6.52369E1,5.5318604E1,6.6339813E2,8.638512E1,1.0271098E2,3.1434863E0,4.262327E0,7.11689E0,4.393928E0,2.8885596E2,7.493815E2,1.8841354E2,6.8504105E1,5.250133E1,6.9677243E0,6.2995377E0,4.602258E1,6.543276E0,9.770793E0,3.9968117E1,2.5400002E2,4.7519276E1,9.957582E0,4.6671238E1,4.8874058E1,2.431869E2,1.2092649E2,8.085705E1,1.0743778E3,3.4351925E1,3.0884974E1,4.577981E1,9.538792E0,3.9794293E2,2.6545523E2,4.3827038E1,4.2558075E1,9.111263E1,1.1598349E1,3.7688778E1,7.116927E2,6.15225E1,6.9816074E0,4.6110443E1,6.3908906E0,3.578521E1,4.1829033E0,1.754958E2,7.850421E1,8.9443E0,3.8574978E1,5.3676953E0,4.1303543E1,3.2093735E1,1.6780321E1,1.2018115E2,1.2300576E2,2.4957846E1,9.596864E1,9.561643E0,7.129541E1,9.691099E0,2.1193874E1,2.3446703E1,2.2333107E1,5.9066315E0,3.6321597E0,3.9684452E1,3.5825848E2,3.36129E1,1.0214141E1,2.965681E1,1.2901265E1,5.518029E1,3.5932343E1,7.910458E0,3.6878905E0,2.5527615E1,6.861651E2,3.2580833E0,3.7235239E0,1.2998073E2,4.5515076E1,6.495727E1,1.3546939E1,1.4669483E1,2.3905495E1,7.659525E1,4.3585903E1,1.5599771E1,1.0740598E2,1.2935863E1,1.2021983E1,4.3207268E1,5.2761375E1,5.537771E0,4.1533284E0,1.5337833E1,5.8560414E0,1.5550124E1,7.8965783E0,2.5724325E1,1.3960126E1,1.2176858E2,2.364899E2,1.4391304E1,1.9221594E1,6.594924E0,3.6192167E0,1.443989E1,1.5216921E1,3.580483E0,9.320782E0,1.4871951E1,4.030834E1,2.2263372E1,1.3668971E1,4.860426E0,3.050032E0],"tree_param":{"num_deleted":"0","num_feature":"5","num_nodes":"161","size_leaf_vector":"1"}},{"base_weights":[-3.7201774E-1,-6.959619E-2,1.0992597E0,1.1447319E-1,-6.4334966E-2],"categories":[],"categories_nodes":[],"categories_segments":[],"categories_sizes":[],"default_left":[0,0,0,0,0],"id":7,"left_children":[1,-1,3,-1,-1],"loss_changes":[8.571015E3,0E0,2.5807715E2,0E0,0E0],"parents":[2147483647,0,0,2,2],"right_children":[2,-1,4,-1,-1],"split_conditions":[1E0,-6.959619E-2,1E0,1.1447319E-1,-6.4334966E-2],"split_indices":[3,0,4,0,0],"split_type":[0,0,0,0,0],"sum_hessian":[1.7980184E4,1.4736269E4,3.2439136E3,3.161876E3,8.203771E1],"tree_param":{"num_deleted":"0","num_feature":"5","num_nodes":"5","size_leaf_vector":"1"}},{"base_weights":[-4.4244435E-1,-7.318123E-2,-6.8103546E-1,-6.923396E-1,2.9776898E-1,-5.639546E-1,-6.880417E-2,-3.8726345E-1,-6.9575167E-1,7.596942E-1,-2.8618032E-1,-4.0545306E-1,-5.8202636E-1,-1.3142836E-1,-4.9769792E-1,-6.967684E-2,-1.5494457E-2,9.621728E-1,5.316783E-1,-4.4758555E-1,5.597426E-1,-4.2877308E-1,-1.993995E-2,-6.3553534E-2,-5.53171E-1,-2.9592289E-2,6.6182367E-3,-5.489258E-2,-2.353661E-2,7.480656E-1,1.007242E0,-7.039804E-2,7.009077E-1,-6.434891E-1,-2.392579E-1,1.08214565E-1,6.7793334E-1,-2.70178E-2,-4.7162946E-2,-4.504482E-2,-5.7526684E-1,7.88244E-1,-3.0041295E-1,1.0586739E0,8.86348E-1,4.029719E-1,7.891902E-1,-2.9532808E-1,-6.7619944E-1,-1.1743864E-2,-3.7418833E-1,-3.0984253E-1,5.656157E-1,8.3033836E-1,4.5052353E-1,-6.7676455E-2,-5.4469105E-2,6.9002223E-1,9.4073737E-1,-5.524621E-2,6.736117E-3,9.965333E-2,1.1290708E0,4.622565E-1,9.2649055E-1,7.636722E-1,2.2008E-1,1.0304257E0,5.81511E-1,-1.0711898E-3,-3.232045E-1,-6.938618E-2,-4.8754597E-1,-3.8900423E-1,1.1085384E-1,-2.3541132E-1,-5.4413366E-1,-6.2505144E-4,-3.4839144E-1,9.149353E-2,2.3660848E-2,7.2364795E-1,9.393147E-2,1.3408418E-1,6.8175423E-1,9.9277824E-2,4.8998963E-2,1.022396E-1,4.8718426E-2,1.14423886E-1,5.1304996E-2,1.110444E-2,5.2797515E-2,9.6123055E-2,4.9110696E-2,5.3270496E-2,9.319326E-2,8.7790325E-2,-6.8039917E-3,1.07556716E-1,9.307691E-2,7.381643E-2,2.1850862E-2,-3.5289116E-2,-7.2973743E-3,-2.4158765E-2,-5.006225E-2,-4.3031808E-2,-1.8915718E-2,4.716433E-2,3.520985E-3,-4.9055573E-2,-6.4169997E-3,-6.1859637E-2,-4.9099486E-2,-4.242991E-2,-2.3879703E-2,-1.3909841E-2,2.265325E-2,8.571156E-2,4.0252063E-2,1.95286E-2,-1.5117265E-2,7.6059334E-2,-2.3995307E-3],"categories":[],"categories_nodes":[],"categories_segments":[],"categories_sizes":[],"default_left":[0,0,0,0,0,0,0,0,0,0,0,0,0,0,0,0,0,0,0,0,0,0,0,0,0,0,0,0,0,0,0,0,0,0,0,0,0,0,0,0,0,0,0,0,0,0,0,0,0,0,0,0,0,0,0,0,0,0,0,0,0,0,0,0,0,0,0,0,0,0,0,0,0,0,0,0,0,0,0,0,0,0,0,0,0,0,0,0,0,0,0,0,0,0,0,0,0,0,0,0,0,0,0,0,0,0,0,0,0,0,0,0,0,0,0,0,0,0,0,0,0,0,0,0,0],"id":8,"left_children":[1,3,5,7,9,11,-1,13,15,17,19,21,23,25,27,-1,-1,29,31,33,35,37,-1,-1,39,-1,-1,-1,-1,41,43,-1,45,47,49,51,53,-1,-1,-1,55,57,59,61,63,65,67,69,71,73,75,77,79,81,83,-1,-1,85,87,-1,-1,-1,89,91,93,95,97,99,101,-1,103,-1,105,107,109,111,113,-1,115,-1,117,119,-1,121,123,-1,-1,-1,-1,-1,-1,-1,-1,-1,-1,-1,-1,-1,-1,-1,-1,-1,-1,-1,-1,-1,-1,-1,-1,-1,-1,-1,-1,-1,-1,-1,-1,-1,-1,-1,-1,-1,-1,-1,-1],"loss_changes":[1.5773809E3,1.6148278E3,8.331055E0,2.3101807E0,1.1862693E3,1.3985901E0,0E0,7.6737833E-1,1.2166748E0,1.12591064E2,2.6552853E2,1.620121E-1,3.156433E-1,4.2360976E-1,5.9011936E-2,0E0,0E0,1.1452515E1,2.4268057E2,6.63374E1,1.6467812E1,1.7891026E-1,0E0,0E0,4.2813873E-1,0E0,0E0,0E0,0E0,1.0059494E1,5.326538E0,0E0,2.629953E1,9.231567E0,2.4304317E1,1.2907559E1,7.9709854E0,0E0,0E0,0E0,3.6663818E-1,2.3949738E0,9.5509785E-1,1.6884766E0,4.914337E0,1.5243565E1,3.84234E1,5.5394316E-1,2.031067E0,1.3806153E1,1.1502892E1,3.74856E-1,5.97303E0,7.1533966E-1,7.2612762E0,0E0,0E0,7.7714386E0,2.3468704E0,0E0,0E0,0E0,2.294403E0,5.7866144E-1,3.7854156E0,2.312584E0,3.0139465E1,2.2271729E-1,2.385318E1,0E0,4.2822552E-1,0E0,6.3266754E-3,4.4521523E-1,6.062519E0,1.19800625E1,4.046631E-1,0E0,6.99482E-2,0E0,5.0743455E-1,2.8654976E0,0E0,8.198554E-1,3.3434563E0,0E0,0E0,0E0,0E0,0E0,0E0,0E0,0E0,0E0,0E0,0E0,0E0,0E0,0E0,0E0,0E0,0E0,0E0,0E0,0E0,0E0,0E0,0E0,0E0,0E0,0E0,0E0,0E0,0E0,0E0,0E0,0E0,0E0,0E0,0E0,0E0,0E0,0E0,0E0,0E0],"parents":[2147483647,0,0,1,1,2,2,3,3,4,4,5,5,7,7,8,8,9,9,10,10,11,11,12,12,13,13,14,14,17,17,18,18,19,19,20,20,21,21,24,24,29,29,30,30,32,32,33,33,34,34,35,35,36,36,40,40,41,41,42,42,43,43,44,44,45,45,46,46,47,47,48,48,49,49,50,50,51,51,52,52,53,53,54,54,57,57,58,58,62,62,63,63,64,64,65,65,66,66,67,67,68,68,70,70,72,72,73,73,74,74,75,75,76,76,78,78,80,80,81,81,83,83,84,84],"right_children":[2,4,6,8,10,12,-1,14,16,18,20,22,24,26,28,-1,-1,30,32,34,36,38,-1,-1,40,-1,-1,-1,-1,42,44,-1,46,48,50,52,54,-1,-1,-1,56,58,60,62,64,66,68,70,72,74,76,78,80,82,84,-1,-1,86,88,-1,-1,-1,90,92,94,96,98,100,102,-1,104,-1,106,108,110,112,114,-1,116,-1,118,120,-1,122,124,-1,-1,-1,-1,-1,-1,-1,-1,-1,-1,-1,-1,-1,-1,-1,-1,-1,-1,-1,-1,-1,-1,-1,-1,-1,-1,-1,-1,-1,-1,-1,-1,-1,-1,-1,-1,-1,-1,-1,-1],"split_conditions":[8.1E2,1.4E1,1.035E3,1E0,2.28E2,2.5519254E-2,-6.880417E-2,1.8242936E-1,1E0,7.2E1,7.7E2,1.01E3,3.4454298E-1,4.3502897E-2,7.7954787E-1,-6.967684E-2,-1.5494457E-2,3.3E1,1.26E2,5.35E2,7.83E2,8.56E2,-1.993995E-2,-6.3553534E-2,5.38466E-1,-2.9592289E-2,6.6182367E-3,-5.489258E-2,-2.353661E-2,1E0,5.546802E-1,-7.039804E-2,1.62E2,2.49E2,6.09E2,6.689341E-1,7.94E2,-2.70178E-2,-4.7162946E-2,-4.504482E-2,5.5638045E-1,7.7954787E-1,6.689341E-1,3.4454298E-1,5.5638045E-1,1.32E2,1.74E2,8.656944E-3,5.13E2,5.58E2,5.449745E-1,8.656944E-3,8.757496E-1,6.689341E-1,5.5638045E-1,-6.7676455E-2,-5.4469105E-2,1.0090467E-1,1E0,-5.524621E-2,6.736117E-3,9.965333E-2,6.4E1,4.2E1,6.4E1,6.689341E-1,1.09441996E-1,5.38466E-1,4.9869382E-1,-1.0711898E-3,8.9435333E-1,-6.938618E-2,8.656944E-3,7.7954787E-1,8.472447E-2,6.82E2,6.689341E-1,-6.2505144E-4,3.4454298E-1,9.149353E-2,8.9435333E-1,7.88E2,9.393147E-2,5.38466E-1,9.443031E-1,9.9277824E-2,4.8998963E-2,1.022396E-1,4.8718426E-2,1.14423886E-1,5.1304996E-2,1.110444E-2,5.2797515E-2,9.6123055E-2,4.9110696E-2,5.3270496E-2,9.319326E-2,8.7790325E-2,-6.8039917E-3,1.07556716E-1,9.307691E-2,7.381643E-2,2.1850862E-2,-3.5289116E-2,-7.2973743E-3,-2.4158765E-2,-5.006225E-2,-4.3031808E-2,-1.8915718E-2,4.716433E-2,3.520985E-3,-4.9055573E-2,-6.4169997E-3,-6.1859637E-2,-4.9099486E-2,-4.242991E-2,-2.3879703E-2,-1.3909841E-2,2.265325E-2,8.571156E-2,4.0252063E-2,1.95286E-2,-1.5117265E-2,7.6059334E-2,-2.3995307E-3],"split_indices":[0,0,0,3,0,1,0,1,4,0,0,0,1,1,1,0,0,0,0,0,0,0,0,0,1,0,0,0,0,3,1,0,0,0,0,1,0,0,0,0,1,1,1,1,1,0,0,1,0,0,1,1,1,1,1,0,0,1,1,0,0,0,0,0,0,1,1,1,1,0,1,0,1,1,1,0,1,0,1,0,1,0,0,1,1,0,0,0,0,0,0,0,0,0,0,0,0,0,0,0,0,0,0,0,0,0,0,0,0,0,0,0,0,0,0,0,0,0,0,0,0,0,0,0,0],"split_type":[0,0,0,0,0,0,0,0,0,0,0,0,0,0,0,0,0,0,0,0,0,0,0,0,0,0,0,0,0,0,0,0,0,0,0,0,0,0,0,0,0,0,0,0,0,0,0,0,0,0,0,0,0,0,0,0,0,0,0,0,0,0,0,0,0,0,0,0,0,0,0,0,0,0,0,0,0,0,0,0,0,0,0,0,0,0,0,0,0,0,0,0,0,0,0,0,0,0,0,0,0,0,0,0,0,0,0,0,0,0,0,0,0,0,0,0,0,0,0,0,0,0,0,0,0],"sum_hessian":[1.7904186E4,7.0284175E3,1.0875769E4,2.632951E3,4.3954663E3,6.2039905E2,1.0255369E4,3.0965946E1,2.6019849E3,2.4540408E3,1.9414257E3,6.694066E1,5.534584E2,1.0402021E1,2.0563925E1,2.5965725E3,5.412423E0,1.2975295E3,1.1565112E3,1.6309229E3,3.1050284E2,5.853376E1,8.406898E0,1.8384471E2,3.6961368E2,5.6270285E0,4.774993E0,1.57885685E1,4.7753563E0,2.2969058E2,1.0678389E3,1.387826E2,1.0177287E3,8.3898553E2,7.919373E2,6.506762E1,2.4543523E2,1.481343E1,4.3720333E1,7.077462E1,2.9883905E2,2.2159222E2,8.098347E0,7.420244E2,3.2581454E2,2.3441953E2,7.8330914E2,7.335052E1,7.65635E2,2.955831E2,4.9635422E2,3.408395E1,3.098367E1,1.4478336E2,1.0065188E2,6.2554787E1,2.3628427E2,1.3921123E2,8.2381004E1,4.6089535E0,3.489393E0,4.0453882E2,3.3748557E2,2.9687405E1,2.9612714E2,7.7404526E1,1.57015E2,3.5995636E2,4.2335278E2,7.011542E0,6.633898E1,6.9666724E2,6.8967766E1,7.20567E1,2.235264E2,2.7513235E2,2.2122188E2,4.289631E0,2.9794317E1,1.8225782E1,1.2757886E1,7.825548E1,6.652787E1,4.347907E1,5.7172813E1,5.329373E1,8.591749E1,6.8349686E1,1.4031321E1,3.282128E2,9.272771E0,5.4280767E0,2.4259327E1,2.7268976E2,2.343737E1,3.498074E1,4.242379E1,4.7181915E1,1.09833084E2,2.3896005E2,1.2099629E2,2.946718E2,1.2868098E2,5.8506042E1,7.8329363E0,5.0474215E0,6.3920345E1,5.815102E1,1.3905679E1,3.7424335E1,1.8610207E2,1.0936307E2,1.6576929E2,8.602495E1,1.3519693E2,1.502757E1,1.4766748E1,7.014564E0,5.7433224E0,5.3645092E1,2.4610388E1,3.639876E1,7.0803046E0,5.14714E1,5.7014112E0],"tree_param":{"num_deleted":"0","num_feature":"5","num_nodes":"125","size_leaf_vector":"1"}},{"base_weights":[6.644972E-1,-4.165928E-1,9.9468756E-1,-5.814813E-1,6.888024E-2,7.6821184E-1,1.0318935E0,-3.8158616E-1,-6.6612697E-1,5.1376045E-1,-1.4205967E-1,8.653329E-1,-5.9568755E-2,9.58127E-2,1.036196E-1,6.9090086E-1,-4.212478E-1,-6.7161083E-1,7.8727883E-1,7.396183E-1,-6.156154E-1,-3.2501248E-1,3.886424E-2,1.0019774E0,6.9807106E-1,-2.2894543E-1,1.6442889E-1,2.0374406E-2,7.998782E-2,-2.0506252E-1,-4.7438958E-1,-6.734688E-2,1.3931974E-2,9.551788E-2,3.729536E-2,1.05780564E-1,2.9394943E-1,-6.6630125E-2,-3.953581E-1,8.404935E-2,-4.613326E-1,-1.2447535E-1,3.5859618E-1,7.5301594E-1,1.0214078E0,4.5250642E-1,7.917818E-1,-1.279559E-1,-3.5296953E-1,4.3609992E-1,-6.845537E-2,-4.9480133E-2,-1.1177912E-1,-5.338061E-1,-3.4253392E-1,-1.559079E-1,7.4075215E-2,-1.3935841E-2,-5.1213708E-2,-5.0494988E-2,4.4247654E-1,-5.1257026E-1,-3.6242184E-1,1.427872E-1,-2.3048429E-1,7.229673E-2,2.8235993E-1,4.8676416E-2,7.828913E-1,1.0443878E-1,8.9721076E-2,1.22539766E-1,5.117371E-1,8.2825184E-1,4.714199E-1,-2.6411164E-1,1.3170461E-1,-4.585912E-2,-2.0494378E-1,5.3995246E-1,2.4401821E-1,-1.941155E-1,5.9130456E-2,1.2184045E-1,-3.8948974E-1,-4.4389504E-1,-6.27733E-1,-1.8870857E-1,-6.397529E-2,6.973328E-2,-3.7610632E-1,3.6067826E-1,8.8390045E-2,-2.5837985E-1,-5.3718406E-1,-1.7682722E-1,-5.60076E-1,-1.7192592E-1,5.857505E-1,-3.0874634E-1,5.9750143E-2,1.6173738E-1,4.0217504E-1,8.136015E-2,4.487838E-2,2.459683E-1,-5.8770187E-2,5.8880913E-1,1.08332284E-1,7.285298E-1,9.416043E-2,7.781924E-2,6.7409515E-2,-4.7831304E-2,-1.3977064E-1,-4.11664E-3,1.8759632E-1,1.0010981E-1,-3.5029322E-1,1.57693E-2,6.7162263E-1,4.802452E-3,4.7308315E-2,-3.8918167E-2,-7.844781E-2,5.048997E-2,6.105812E-3,-4.9637828E-2,9.291378E-3,-6.2591255E-2,-4.0616993E-2,-6.45216E-2,-4.0338088E-2,-2.5925761E-2,1.5966987E-2,-1.4599459E-3,3.2904882E-2,-4.8697524E-2,-0E0,4.3667372E-2,2.331153E-3,-0E0,-3.6494486E-2,-4.7339346E-2,-6.1916918E-2,-1.509495E-4,-2.7792001E-2,-2.2819022E-2,-6.443491E-2,3.900545E-2,-4.2861983E-2,3.664306E-2,8.112825E-2,-6.589208E-2,-2.6859427E-2,1.7499393E-2,-1.9214697E-3,2.1137653E-2,-5.2394845E-2,6.892633E-2,1.649958E-2,9.020871E-3,6.446802E-2,2.8072486E-2,6.723394E-2,4.502301E-2,-2.1186516E-2,7.4765824E-2,-6.1345007E-2,-3.3322655E-2,6.1710652E-2,2.3387669E-2,-2.4992604E-2,2.7023563E-2,-5.624334E-3,2.109765E-2,-5.882471E-4,-3.8380317E-2,-1.518018E-2,9.002134E-2,4.63755E-2,4.1983515E-2,-3.1414863E-2],"categories":[],"categories_nodes":[],"categories_segments":[],"categories_sizes":[],"default_left":[0,0,0,0,0,0,0,0,0,0,0,0,0,0,0,0,0,0,0,0,0,0,0,0,0,0,0,0,0,0,0,0,0,0,0,0,0,0,0,0,0,0,0,0,0,0,0,0,0,0,0,0,0,0,0,0,0,0,0,0,0,0,0,0,0,0,0,0,0,0,0,0,0,0,0,0,0,0,0,0,0,0,0,0,0,0,0,0,0,0,0,0,0,0,0,0,0,0,0,0,0,0,0,0,0,0,0,0,0,0,0,0,0,0,0,0,0,0,0,0,0,0,0,0,0,0,0,0,0,0,0,0,0,0,0,0,0,0,0,0,0,0,0,0,0,0,0,0,0,0,0,0,0,0,0,0,0,0,0,0,0,0,0,0,0,0,0,0,0,0,0,0,0,0,0,0,0,0,0,0,0,0,0],"id":9,"left_children":[1,3,5,7,9,11,13,15,17,19,21,23,25,-1,-1,27,29,31,33,35,37,39,41,43,45,47,49,-1,-1,51,53,-1,-1,-1,-1,-1,55,-1,57,59,61,63,65,67,69,71,73,75,77,79,81,-1,83,85,87,89,-1,-1,-1,-1,91,93,95,97,99,-1,101,-1,103,-1,-1,105,107,109,111,113,115,-1,117,119,121,123,-1,125,127,129,131,133,-1,135,137,139,-1,141,143,145,147,149,151,153,155,157,159,-1,-1,161,-1,163,165,167,-1,-1,169,-1,171,-1,173,175,177,-1,179,-1,-1,-1,181,-1,-1,-1,-1,-1,-1,-1,-1,-1,-1,-1,-1,-1,-1,-1,-1,-1,-1,-1,-1,-1,-1,-1,-1,-1,-1,-1,-1,-1,-1,-1,-1,-1,-1,-1,-1,-1,-1,-1,-1,-1,-1,-1,-1,-1,-1,-1,-1,-1,-1,-1,-1,-1,-1,-1,-1,-1,-1],"loss_changes":[7.2274814E3,3.7933124E2,1.2955273E2,5.943164E1,1.1292733E2,1.7648438E2,2.836914E0,4.520923E1,2.0409912E1,9.928396E1,2.7060322E1,4.386267E1,8.82871E0,0E0,0E0,1.7213116E0,1.1515854E1,3.8936768E0,1.22543335E-1,4.5317078E1,3.0430794E-1,2.2736774E1,2.1550322E1,4.1115723E0,1.9858185E1,1.557136E0,6.402777E0,0E0,0E0,5.3715143E0,6.087509E0,0E0,0E0,0E0,0E0,0E0,2.761398E1,0E0,3.1244612E-1,2.1873386E1,1.2355881E0,7.778045E0,3.5308037E0,7.549286E-2,1.5233154E0,4.710285E0,6.880615E0,2.718996E0,7.329254E-1,6.9192314E-1,4.63391E0,0E0,1.0185602E1,4.287674E0,1.1541496E1,3.4829602E0,0E0,0E0,0E0,0E0,1.8178225E0,9.8890305E-1,3.8009129E0,1.1029749E1,4.500658E0,0E0,1.5650902E0,0E0,1.7707825E-1,0E0,0E0,3.6101575E0,6.37389E0,5.485077E0,8.341183E0,1.1918986E0,2.796472E-1,0E0,1.2578537E0,1.2436523E0,7.673719E-1,9.7680557E-1,0E0,1.8920919E0,3.7886972E0,1.588234E0,6.435852E-1,4.2760196E0,0E0,7.98081E-1,1.4281821E0,1.3913479E0,0E0,5.838083E-1,4.7253418E-1,1.0023158E0,1.1880016E0,6.893857E0,1.147131E0,1.8727283E0,4.052432E-1,2.1786885E0,3.7118835E0,0E0,0E0,2.0115056E0,0E0,4.196968E0,4.004706E0,8.534775E0,0E0,0E0,7.1055274E0,0E0,1.457977E0,0E0,4.5584142E-1,1.32197E-1,7.584095E-4,0E0,3.5664463E-1,0E0,0E0,0E0,3.8263977E0,0E0,0E0,0E0,0E0,0E0,0E0,0E0,0E0,0E0,0E0,0E0,0E0,0E0,0E0,0E0,0E0,0E0,0E0,0E0,0E0,0E0,0E0,0E0,0E0,0E0,0E0,0E0,0E0,0E0,0E0,0E0,0E0,0E0,0E0,0E0,0E0,0E0,0E0,0E0,0E0,0E0,0E0,0E0,0E0,0E0,0E0,0E0,0E0,0E0,0E0,0E0,0E0,0E0,0E0,0E0,0E0,0E0,0E0],"parents":[2147483647,0,0,1,1,2,2,3,3,4,4,5,5,6,6,7,7,8,8,9,9,10,10,11,11,12,12,15,15,16,16,17,17,18,18,19,19,20,20,21,21,22,22,23,23,24,24,25,25,26,26,29,29,30,30,36,36,38,38,39,39,40,40,41,41,42,42,43,43,44,44,45,45,46,46,47,47,48,48,49,49,50,50,52,52,53,53,54,54,55,55,60,60,61,61,62,62,63,63,64,64,66,66,68,68,71,71,72,72,73,73,74,74,75,75,76,76,78,78,79,79,80,80,81,81,83,83,84,84,85,85,86,86,87,87,89,89,90,90,91,91,93,93,94,94,95,95,96,96,97,97,98,98,99,99,100,100,101,101,102,102,105,105,107,107,108,108,109,109,112,112,114,114,116,116,117,117,118,118,120,120,124,124],"right_children":[2,4,6,8,10,12,14,16,18,20,22,24,26,-1,-1,28,30,32,34,36,38,40,42,44,46,48,50,-1,-1,52,54,-1,-1,-1,-1,-1,56,-1,58,60,62,64,66,68,70,72,74,76,78,80,82,-1,84,86,88,90,-1,-1,-1,-1,92,94,96,98,100,-1,102,-1,104,-1,-1,106,108,110,112,114,116,-1,118,120,122,124,-1,126,128,130,132,134,-1,136,138,140,-1,142,144,146,148,150,152,154,156,158,160,-1,-1,162,-1,164,166,168,-1,-1,170,-1,172,-1,174,176,178,-1,180,-1,-1,-1,182,-1,-1,-1,-1,-1,-1,-1,-1,-1,-1,-1,-1,-1,-1,-1,-1,-1,-1,-1,-1,-1,-1,-1,-1,-1,-1,-1,-1,-1,-1,-1,-1,-1,-1,-1,-1,-1,-1,-1,-1,-1,-1,-1,-1,-1,-1,-1,-1,-1,-1,-1,-1,-1,-1,-1,-1,-1,-1],"split_conditions":[2.28E2,6.4E1,8.1E2,1E0,1.49E2,7.83E2,1.035E3,1.4E1,1.4E1,1E0,1.74E2,5.58E2,7.94E2,9.58127E-2,1.036196E-1,4.3502897E-2,3.3E1,1E0,6.689341E-1,1.26E2,4.6365076E-1,1.62E2,4.9869382E-1,2.49E2,6.09E2,6.689341E-1,5.5638045E-1,2.0374406E-2,7.998782E-2,1.09441996E-1,5.546802E-1,-6.734688E-2,1.3931974E-2,9.551788E-2,3.729536E-2,1.05780564E-1,1.32E2,-6.6630125E-2,7.7954787E-1,1.09441996E-1,5.38466E-1,1.20671146E-1,5.5638045E-1,1.09441996E-1,5.13E2,8.472447E-2,7.7E2,7.88E2,8.757496E-1,3.4454298E-1,9.727458E-1,-4.9480133E-2,7.7954787E-1,3.4454298E-1,6.2E1,6.689341E-1,7.4075215E-2,-1.3935841E-2,-5.1213708E-2,-5.0494988E-2,1.6E2,8.656944E-3,8.9435333E-1,1.95E2,4.3778753E-1,7.229673E-2,8.88889E-1,4.8676416E-2,8.9435333E-1,1.0443878E-1,8.9721076E-2,8.656944E-3,8.9435333E-1,5.449745E-1,6.689341E-1,8.472447E-2,6.319019E-2,-4.585912E-2,7.88E2,5.3579234E-2,5.38466E-1,7.6755345E-1,5.9130456E-2,1.20671146E-1,1E0,3.4E1,5.4E1,5.4E1,-6.397529E-2,4.9869382E-1,8.757496E-1,8.9435333E-1,8.8390045E-2,1.69E2,1.71E2,6.689341E-1,1.69E2,1.89E2,5.8914326E-2,2.0975526E-1,2E2,7.7954787E-1,8.9435333E-1,8.136015E-2,4.487838E-2,5.93E2,-5.8770187E-2,5.68E2,5.93E2,4.535235E-1,9.416043E-2,7.781924E-2,8.757496E-1,-4.7831304E-2,2.2235523E-1,-4.11664E-3,5.5638045E-1,8.9435333E-1,9.6016735E-1,1.57693E-2,1.20671146E-1,4.802452E-3,4.7308315E-2,-3.8918167E-2,7.7954787E-1,5.048997E-2,6.105812E-3,-4.9637828E-2,9.291378E-3,-6.2591255E-2,-4.0616993E-2,-6.45216E-2,-4.0338088E-2,-2.5925761E-2,1.5966987E-2,-1.4599459E-3,3.2904882E-2,-4.8697524E-2,-0E0,4.3667372E-2,2.331153E-3,-0E0,-3.6494486E-2,-4.7339346E-2,-6.1916918E-2,-1.509495E-4,-2.7792001E-2,-2.2819022E-2,-6.443491E-2,3.900545E-2,-4.2861983E-2,3.664306E-2,8.112825E-2,-6.589208E-2,-2.6859427E-2,1.7499393E-2,-1.9214697E-3,2.1137653E-2,-5.2394845E-2,6.892633E-2,1.649958E-2,9.020871E-3,6.446802E-2,2.8072486E-2,6.723394E-2,4.502301E-2,-2.1186516E-2,7.4765824E-2,-6.1345007E-2,-3.3322655E-2,6.1710652E-2,2.3387669E-2,-2.4992604E-2,2.7023563E-2,-5.624334E-3,2.109765E-2,-5.882471E-4,-3.8380317E-2,-1.518018E-2,9.002134E-2,4.63755E-2,4.1983515E-2,-3.1414863E-2],"split_indices":[0,0,0,3,0,0,0,0,0,4,0,0,0,0,0,1,0,4,1,0,1,0,1,0,0,1,1,0,0,1,1,0,0,0,0,0,0,0,1,1,1,1,1,1,0,1,0,0,1,1,1,0,1,1,0,1,0,0,0,0,0,1,1,0,1,0,1,0,1,0,0,1,1,1,1,1,1,0,0,1,1,1,0,1,1,0,0,0,0,1,1,1,0,0,0,1,0,0,1,1,0,1,1,0,0,0,0,0,0,1,0,0,1,0,1,0,1,1,1,0,1,0,0,0,1,0,0,0,0,0,0,0,0,0,0,0,0,0,0,0,0,0,0,0,0,0,0,0,0,0,0,0,0,0,0,0,0,0,0,0,0,0,0,0,0,0,0,0,0,0,0,0,0,0,0,0,0,0,0,0,0,0,0],"split_type":[0,0,0,0,0,0,0,0,0,0,0,0,0,0,0,0,0,0,0,0,0,0,0,0,0,0,0,0,0,0,0,0,0,0,0,0,0,0,0,0,0,0,0,0,0,0,0,0,0,0,0,0,0,0,0,0,0,0,0,0,0,0,0,0,0,0,0,0,0,0,0,0,0,0,0,0,0,0,0,0,0,0,0,0,0,0,0,0,0,0,0,0,0,0,0,0,0,0,0,0,0,0,0,0,0,0,0,0,0,0,0,0,0,0,0,0,0,0,0,0,0,0,0,0,0,0,0,0,0,0,0,0,0,0,0,0,0,0,0,0,0,0,0,0,0,0,0,0,0,0,0,0,0,0,0,0,0,0,0,0,0,0,0,0,0,0,0,0,0,0,0,0,0,0,0,0,0,0,0,0,0,0,0],"sum_hessian":[2.024425E4,4.7363037E3,1.5507947E4,3.5354683E3,1.2008352E3,2.192243E3,1.3315704E4,1.0540549E3,2.4814133E3,3.8583853E2,8.1499664E2,1.9621017E3,2.3014131E2,7.499155E2,1.2565788E4,3.6797287E1,1.0172577E3,2.4727976E3,8.615847E0,3.2195514E2,6.388341E1,4.0502582E2,4.099708E2,1.0762626E3,8.858392E2,1.312876E2,9.885371E1,7.5240335E0,2.9273254E1,2.022401E2,8.150176E2,2.467471E3,5.3267083E0,4.844754E0,3.771092E0,1.8675087E2,1.3520425E2,4.9588024E1,1.4295385E1,1.0116927E2,3.0385657E2,2.716266E2,1.3834422E2,8.174256E1,9.9451996E2,2.4690308E2,6.389361E2,7.415196E1,5.7135643E1,4.5342133E1,5.3511574E1,4.7735672E1,1.5450443E2,5.587971E2,2.5622046E2,6.7649605E1,6.755465E1,5.5710406E0,8.724345E0,3.798289E1,6.3186386E1,1.9619444E2,1.0766212E2,7.675569E1,1.9487088E2,2.1948713E1,1.16395515E2,1.0678029E1,7.106453E1,8.310546E2,1.6346533E2,3.8392765E1,2.085103E2,5.716454E2,6.729073E1,4.888378E1,2.5268179E1,3.148019E1,2.5655455E1,2.7681656E1,1.7660475E1,4.5788956E1,7.722617E0,8.4083755E1,7.042066E1,2.8955652E2,2.6924063E2,1.7035287E2,8.586759E1,3.3592564E1,3.405704E1,5.533883E1,7.8475575E0,1.8897404E1,1.7729703E2,5.695841E1,5.070371E1,4.5171265E1,3.158443E1,1.5369489E2,4.1175995E1,5.982342E1,5.6572094E1,6.3231045E1,7.8334875E0,3.3496784E1,4.8959827E0,1.7439255E2,3.4117752E1,3.0931747E2,2.6232788E2,3.747577E1,2.9814962E1,1.6404125E1,3.2479656E1,5.813674E0,1.9454506E1,8.177773E0,1.7477682E1,7.9623437E0,1.9719313E1,1.0534789E1,7.125686E0,1.5666417E1,3.012254E1,1.0088883E1,7.399487E1,5.7788677E1,1.26319895E1,4.6043556E1,2.4351295E2,2.4727448E2,2.1966164E1,1.4215877E2,2.819411E1,2.5912348E1,7.6802177E0,2.5853088E1,8.203953E0,4.4634735E1,1.0704093E1,5.639939E0,1.3257464E1,1.0497066E2,7.232638E1,2.1638855E1,3.5319553E1,1.1408902E1,3.9294807E1,1.3845745E1,3.1325518E1,1.783437E1,1.3750061E1,1.3651769E1,1.4004312E2,1.6663631E1,2.4512362E1,5.6694992E1,3.1284282E0,2.4367765E1,3.2204327E1,2.5325504E1,8.171279E0,3.8568962E1,1.358236E2,1.6415127E1,1.7702625E1,3.0556793E2,3.749568E0,1.7413853E1,1.2401111E1,6.8816137E0,2.5598042E1,1.4739403E1,4.715103E0,3.877173E0,4.3006E0,1.3563695E1,3.9139867E0,7.258864E0,1.2460448E1,9.235826E0,2.0886713E1],"tree_param":{"num_deleted":"0","num_feature":"5","num_nodes":"183","size_leaf_vector":"1"}},{"base_weights":[-3.570208E-1,-6.7461723E-1,9.957184E-1,-5.0473607E-1,-6.7500286E-2,1.0358621E-1,-6.3574634E-2,1.2767325E-2,-6.5431334E-2],"categories":[],"categories_nodes":[],"categories_segments":[],"categories_sizes":[],"default_left":[0,0,0,0,0,0,0,0,0],"id":10,"left_children":[1,3,5,7,-1,-1,-1,-1,-1],"loss_changes":[7.41874E3,3.8916016E-1,2.1586987E2,3.654788E0,0E0,0E0,0E0,0E0,0E0],"parents":[2147483647,0,0,1,1,2,2,3,3],"right_children":[2,4,6,8,-1,-1,-1,-1,-1],"split_conditions":[1E0,2E0,1E0,4.3502897E-2,-6.7500286E-2,1.0358621E-1,-6.3574634E-2,1.2767325E-2,-6.5431334E-2],"split_indices":[3,2,4,1,0,0,0,0,0],"split_type":[0,0,0,0,0,0,0,0,0],"sum_hessian":[1.7264938E4,1.3982741E4,3.2821956E3,3.5820057E1,1.3946921E4,3.203861E3,7.8334496E1,6.7573404E0,2.9062716E1],"tree_param":{"num_deleted":"0","num_feature":"5","num_nodes":"9","size_leaf_vector":"1"}},{"base_weights":[-4.233464E-1,-7.057891E-2,-6.586512E-1,-6.7154974E-1,2.782399E-1,-5.407096E-1,-6.659064E-2,-6.737722E-1,-9.2968695E-2,6.900733E-1,-2.6532084E-1,-4.137643E-1,-5.541931E-1,-6.744494E-2,-4.000727E-2,1.2782912E-2,-2.7585423E-2,8.669594E-1,4.9411586E-1,-4.2409256E-1,5.345449E-1,1.2172634E-2,-4.5915443E-1,-6.1767455E-2,-5.209127E-1,-1.9797618E-3,5.7917363E-3,8.882195E-1,-6.6334434E-2,-6.804245E-2,6.446167E-1,-6.1447984E-1,-1.4303993E-1,-5.655655E-1,6.631678E-1,-6.105424E-2,-3.574163E-1,-4.2469567E-1,-5.410798E-1,7.656492E-1,9.4757265E-1,-2.8999266E-1,6.8624306E-1,-2.7577224E-1,-6.422964E-1,9.2913735E-1,-2.549031E-1,-4.0452662E-1,-6.664419E-2,1.3825329E-1,8.1199473E-1,1.8456308E-2,-4.318306E-1,-4.930177E-1,-2.9977518E-1,-6.541851E-2,-5.090191E-1,7.970037E-1,-5.3037085E-2,9.8747545E-1,8.603685E-1,-4.2770814E-2,-1.8299739E-1,4.263948E-1,7.649366E-1,1.3105804E-2,-3.2105598E-1,-6.6953015E-1,-5.5165943E-2,1.0114559E0,3.1558406E-1,-9.9397466E-2,-5.109698E-1,-4.7775276E-2,-7.2111315E-3,-6.040569E-2,7.775595E-1,6.970727E-1,9.005302E-1,-2.6699638E-1,-5.0992716E-2,-5.4026373E-2,-1.4684461E-2,9.258543E-3,-3.653444E-1,-4.3514308E-1,-5.3269345E-2,-3.530467E-2,8.331644E-2,9.166336E-2,1.0466953E-1,7.3056765E-2,1.0069432E-1,-2.712576E-2,3.49528E-2,-2.986036E-2,5.896755E-2,5.364268E-2,9.3795545E-2,-6.483104E-2,-2.391108E-2,-4.819915E-2,-6.767024E-2,4.4635974E-2,1.03751674E-1,9.919252E-3,3.9688513E-2,6.568087E-2,-1.8430455E-2,-5.550188E-2,-4.3481324E-2,3.2363553E-2,9.551198E-2,7.47076E-2,2.0285614E-3,6.861789E-2,9.466065E-2,-7.280316E-3,-5.247743E-2,-2.1113832E-2,-4.3352555E-2,-5.715586E-2,-2.211602E-2],"categories":[],"categories_nodes":[],"categories_segments":[],"categories_sizes":[],"default_left":[0,0,0,0,0,0,0,0,0,0,0,0,0,0,0,0,0,0,0,0,0,0,0,0,0,0,0,0,0,0,0,0,0,0,0,0,0,0,0,0,0,0,0,0,0,0,0,0,0,0,0,0,0,0,0,0,0,0,0,0,0,0,0,0,0,0,0,0,0,0,0,0,0,0,0,0,0,0,0,0,0,0,0,0,0,0,0,0,0,0,0,0,0,0,0,0,0,0,0,0,0,0,0,0,0,0,0,0,0,0,0,0,0,0,0,0,0,0,0,0,0,0,0],"id":11,"left_children":[1,3,5,7,9,11,-1,13,15,17,19,21,23,-1,-1,25,-1,27,29,31,33,-1,35,-1,37,-1,-1,39,-1,-1,41,43,45,47,49,-1,51,53,55,57,59,61,63,65,67,69,71,73,-1,75,77,-1,79,81,83,-1,85,87,-1,89,91,-1,93,95,97,-1,99,101,-1,103,105,107,109,-1,-1,-1,111,113,115,117,-1,-1,-1,-1,119,121,-1,-1,-1,-1,-1,-1,-1,-1,-1,-1,-1,-1,-1,-1,-1,-1,-1,-1,-1,-1,-1,-1,-1,-1,-1,-1,-1,-1,-1,-1,-1,-1,-1,-1,-1,-1,-1],"loss_changes":[1.425897E3,1.4415718E3,8.264648E0,3.0958252E0,9.7429456E2,6.6252136E-1,0E0,3.503418E-2,2.4770364E-1,8.5172485E1,2.3855296E2,1.6436825E0,6.452942E-1,0E0,0E0,1.6826972E-2,0E0,4.3006348E1,2.0870764E2,8.363382E1,4.449385E1,0E0,5.491419E-1,0E0,3.3463287E-1,0E0,0E0,8.286133E0,0E0,0E0,4.0919647E1,8.488281E0,7.629834E1,1.0778332E-1,2.1585945E1,0E0,1.6747332E0,3.3713913E-1,5.573273E-1,1.7809525E1,1.7823486E0,5.122671E-1,1.994934E1,1.4180646E0,1.5604553E0,2.519928E0,2.279197E1,2.9799962E-1,0E0,3.0611713E1,1.2966309E0,0E0,2.0187616E-1,5.327301E-1,7.9274607E-1,0E0,3.9028168E-2,1.7686188E1,0E0,1.0853882E0,4.262146E0,0E0,1.4215297E0,2.812862E1,2.954065E1,0E0,1.5069127E0,3.748169E-1,0E0,6.618881E-2,6.145072E-2,2.3196774E1,3.3900452E-1,0E0,0E0,0E0,2.2896175E0,3.299614E0,2.2335815E-1,5.948278E-1,0E0,0E0,0E0,0E0,8.436394E-2,1.6670523E0,0E0,0E0,0E0,0E0,0E0,0E0,0E0,0E0,0E0,0E0,0E0,0E0,0E0,0E0,0E0,0E0,0E0,0E0,0E0,0E0,0E0,0E0,0E0,0E0,0E0,0E0,0E0,0E0,0E0,0E0,0E0,0E0,0E0,0E0,0E0,0E0,0E0],"parents":[2147483647,0,0,1,1,2,2,3,3,4,4,5,5,7,7,8,8,9,9,10,10,11,11,12,12,15,15,17,17,18,18,19,19,20,20,22,22,24,24,27,27,30,30,31,31,32,32,33,33,34,34,36,36,37,37,38,38,39,39,40,40,41,41,42,42,43,43,44,44,45,45,46,46,47,47,49,49,50,50,52,52,53,53,54,54,56,56,57,57,59,59,60,60,62,62,63,63,64,64,66,66,67,67,69,69,70,70,71,71,72,72,76,76,77,77,78,78,79,79,84,84,85,85],"right_children":[2,4,6,8,10,12,-1,14,16,18,20,22,24,-1,-1,26,-1,28,30,32,34,-1,36,-1,38,-1,-1,40,-1,-1,42,44,46,48,50,-1,52,54,56,58,60,62,64,66,68,70,72,74,-1,76,78,-1,80,82,84,-1,86,88,-1,90,92,-1,94,96,98,-1,100,102,-1,104,106,108,110,-1,-1,-1,112,114,116,118,-1,-1,-1,-1,120,122,-1,-1,-1,-1,-1,-1,-1,-1,-1,-1,-1,-1,-1,-1,-1,-1,-1,-1,-1,-1,-1,-1,-1,-1,-1,-1,-1,-1,-1,-1,-1,-1,-1,-1,-1,-1,-1],"split_conditions":[8.1E2,1.4E1,1.035E3,5E0,2.28E2,2.5519254E-2,-6.659064E-2,3E0,4.535235E-1,7.2E1,7.7E2,1E1,3.4454298E-1,-6.744494E-2,-4.000727E-2,1.8242936E-1,-2.7585423E-2,3.2E1,1.26E2,3.32E2,2.27E2,1.2172634E-2,8.4E1,-6.1767455E-2,5.38466E-1,-1.9797618E-3,5.7917363E-3,4.2E1,-6.6334434E-2,-6.804245E-2,3.9E1,2.49E2,3.36E2,4.535235E-1,7.83E2,-6.105424E-2,9.9E1,1.3E2,5.5638045E-1,3.9E1,5.546802E-1,3.2E1,1.62E2,1E1,5.13E2,5.449745E-1,6.09E2,3.4454298E-1,-6.664419E-2,2.52E2,5.5638045E-1,1.8456308E-2,8.56E2,1.01E3,1.41E2,-6.541851E-2,5.6E1,2E0,-5.3037085E-2,3.4454298E-1,6.2E1,-4.2770814E-2,8.9435333E-1,1.07E2,8.2E1,1.3105804E-2,1.4E1,5E0,-5.5165943E-2,3.1119997E-2,7.6755345E-1,4.2E2,3.87E2,-4.7775276E-2,-7.2111315E-3,-6.040569E-2,6.689341E-1,5.38466E-1,7.88E2,2.01E2,-5.0992716E-2,-5.4026373E-2,-1.4684461E-2,9.258543E-3,1.74E2,3.2E1,-5.3269345E-2,-3.530467E-2,8.331644E-2,9.166336E-2,1.0466953E-1,7.3056765E-2,1.0069432E-1,-2.712576E-2,3.49528E-2,-2.986036E-2,5.896755E-2,5.364268E-2,9.3795545E-2,-6.483104E-2,-2.391108E-2,-4.819915E-2,-6.767024E-2,4.4635974E-2,1.03751674E-1,9.919252E-3,3.9688513E-2,6.568087E-2,-1.8430455E-2,-5.550188E-2,-4.3481324E-2,3.2363553E-2,9.551198E-2,7.47076E-2,2.0285614E-3,6.861789E-2,9.466065E-2,-7.280316E-3,-5.247743E-2,-2.1113832E-2,-4.3352555E-2,-5.715586E-2,-2.211602E-2],"split_indices":[0,0,0,2,0,1,0,2,1,0,0,2,1,0,0,1,0,2,0,2,2,0,2,0,1,0,0,0,0,0,2,0,2,1,0,0,2,2,1,0,1,2,0,2,0,1,0,1,0,2,1,0,0,0,2,0,2,2,0,1,0,0,1,2,2,0,2,2,0,1,1,2,2,0,0,0,1,1,0,2,0,0,0,0,2,2,0,0,0,0,0,0,0,0,0,0,0,0,0,0,0,0,0,0,0,0,0,0,0,0,0,0,0,0,0,0,0,0,0,0,0,0,0],"split_type":[0,0,0,0,0,0,0,0,0,0,0,0,0,0,0,0,0,0,0,0,0,0,0,0,0,0,0,0,0,0,0,0,0,0,0,0,0,0,0,0,0,0,0,0,0,0,0,0,0,0,0,0,0,0,0,0,0,0,0,0,0,0,0,0,0,0,0,0,0,0,0,0,0,0,0,0,0,0,0,0,0,0,0,0,0,0,0,0,0,0,0,0,0,0,0,0,0,0,0,0,0,0,0,0,0,0,0,0,0,0,0,0,0,0,0,0,0,0,0,0,0,0,0],"sum_hessian":[1.7178193E4,6.8742886E3,1.0303905E4,2.524342E3,4.3499463E3,6.031655E2,9.70074E3,2.5143135E3,1.0028547E1,2.4747737E3,1.8751729E3,6.227702E1,5.4088855E2,2.5059912E3,8.32226E0,6.7150035E0,3.3135438E0,1.2982527E3,1.176521E3,1.5651771E3,3.0999573E2,4.536487E0,5.7740532E1,1.7775319E2,3.631353E2,3.0043397E0,3.7106638E0,1.2810247E3,1.7228045E1,1.3307623E2,1.0434448E3,9.320319E2,6.3314514E2,3.1942013E1,2.780537E2,2.04003E1,3.7340233E1,6.8370415E1,2.9476492E2,4.2393054E2,8.570941E2,4.408437E1,9.993604E2,7.200131E1,8.6003064E2,5.8904152E1,5.7424097E2,1.4999802E1,1.6942211E1,6.208075E1,2.1597296E2,4.1312375E0,3.3208996E1,4.139435E1,2.6976065E1,5.9268867E1,2.3549605E2,4.1444315E2,9.487374E0,5.7873975E2,2.783544E2,1.7293741E1,2.6790628E1,2.3438565E2,7.6497473E2,6.7628074E0,6.52385E1,6.5458075E2,2.0544986E2,5.110618E1,7.7979746E0,3.5855316E2,2.1568785E2,1.1615576E1,3.384226E0,2.8684452E1,3.3396297E1,9.9106705E1,1.1686625E2,1.27922E1,2.0416796E1,3.5577076E1,5.8172727E0,3.573431E0,2.3402634E1,6.382136E1,1.7167468E2,1.22291E1,4.0221405E2,2.7328494E2,3.054548E2,1.5179451E2,1.26559875E2,2.3647795E1,3.142833E0,4.2788654E1,1.91597E2,3.3199716E2,4.329776E2,1.1159207E1,5.4079296E1,2.7640074E1,6.269407E2,3.3811178E0,4.772506E1,3.193146E0,4.6048284E0,3.5259716E1,3.2329343E2,1.3103734E2,8.4650505E1,1.0501116E1,2.2895182E1,9.203451E1,7.072201E0,2.4434677E1,9.243157E1,8.394881E0,4.397319E0,9.131826E0,1.4270807E1,3.746475E1,2.6356611E1],"tree_param":{"num_deleted":"0","num_feature":"5","num_nodes":"123","size_leaf_vector":"1"}},{"base_weights":[6.1545074E-1,-5.9390926E-1,8.08466E-1,-3.1517857E-1,-6.3251203E-1,3.8245225E-1,9.0304065E-1,7.4732685E-1,-4.7771174E-1,-6.449991E-2,-2.4791771E-1,2.1895625E-1,6.2530446E-1,8.026369E-1,9.4695054E-2,2.34659E-2,8.3194214E-1,-4.275113E-1,-5.568258E-1,-4.569661E-1,4.1490715E-2,3.6016226E-2,3.6121905E-1,6.9046736E-1,4.2386836E-1,8.173806E-1,3.736879E-1,8.806999E-2,2.8430358E-2,-5.8084752E-2,-3.6780584E-1,-6.0146756E-2,-2.9524067E-2,-1.0330754E-2,-5.481108E-1,1.2563147E-1,-1.9047266E-2,8.291371E-2,-8.767849E-2,5.797166E-1,8.10761E-2,5.875137E-1,8.3238214E-1,1.8194832E-1,8.4079E-1,7.7267665E-1,8.6712533E-1,-1.294091E-1,4.9870792E-1,-3.9411733E-1,-9.329378E-3,-1.785559E-2,1.4621844E-2,-5.8505148E-2,-1.6081357E-2,6.590449E-2,2.8597692E-2,1.2081568E-1,-3.9198518E-1,4.9752086E-1,8.7159026E-1,-9.909123E-2,4.5333064E-1,9.47306E-2,5.051898E-1,9.3164E-2,7.673673E-1,3.7061816E-1,-1.8905623E-1,9.3622975E-2,1.4969581E-1,8.70284E-1,4.802886E-1,9.311137E-2,8.3047783E-1,-3.7714323E-1,5.9109714E-2,7.210573E-2,4.0337044E-1,-2.5702804E-1,-4.7808718E-2,2.1868853E-1,-7.634056E-3,2.8474334E-1,-4.157039E-1,-4.733553E-1,7.1909934E-2,6.9067097E-1,1.8903561E-1,9.154076E-2,6.98857E-1,1.1092736E-1,-1.849227E-1,8.369433E-2,-4.1283318E-1,3.8061932E-1,6.730162E-1,1.9562715E-1,8.539064E-1,6.953524E-2,2.8518453E-1,-3.3548376E-1,2.4090199E-1,3.9785422E-2,-1.5280678E-2,6.7630506E-1,9.2059955E-2,2.99585E-1,7.770287E-1,8.570588E-3,8.872308E-1,-2.9165844E-2,-5.6310352E-2,-6.0598213E-2,5.47305E-1,-1.0106727E-2,-3.0295342E-2,3.157319E-4,5.027888E-2,1.3846536E-2,9.561946E-2,-1.0795843E-2,-5.4861557E-2,1.6532319E-2,-5.0806362E-2,7.386937E-2,-3.561185E-2,4.062221E-2,9.215265E-2,-1.8018182E-2,3.9246947E-2,7.516911E-2,3.7131816E-2,3.711913E-2,-4.6224967E-2,-3.531596E-2,1.059383E-3,-6.304387E-2,2.1700512E-3,6.7416124E-2,3.175762E-2,7.405277E-2,3.979852E-3,3.4300417E-2,1.1572693E-2,7.4573584E-2,9.331518E-2,1.9840887E-2,4.726901E-2,-0E0,-4.8031878E-2,5.931377E-2,-2.473273E-2,8.972689E-2,-2.4728963E-2,4.572504E-2,1.1616929E-2,9.4803534E-2,5.2182566E-2,-2.1620428E-2,5.821076E-2,9.049685E-2,7.428534E-2,3.114188E-2,-1.8842036E-2,7.6130986E-2,4.3193053E-2],"categories":[],"categories_nodes":[],"categories_segments":[],"categories_sizes":[],"default_left":[0,0,0,0,0,0,0,0,0,0,0,0,0,0,0,0,0,0,0,0,0,0,0,0,0,0,0,0,0,0,0,0,0,0,0,0,0,0,0,0,0,0,0,0,0,0,0,0,0,0,0,0,0,0,0,0,0,0,0,0,0,0,0,0,0,0,0,0,0,0,0,0,0,0,0,0,0,0,0,0,0,0,0,0,0,0,0,0,0,0,0,0,0,0,0,0,0,0,0,0,0,0,0,0,0,0,0,0,0,0,0,0,0,0,0,0,0,0,0,0,0,0,0,0,0,0,0,0,0,0,0,0,0,0,0,0,0,0,0,0,0,0,0,0,0,0,0,0,0,0,0,0,0,0,0,0,0,0,0,0,0,0,0,0,0,0,0],"id":12,"left_children":[1,3,5,7,9,11,13,15,17,-1,19,21,23,25,-1,-1,27,29,31,33,35,37,39,41,43,45,47,-1,-1,-1,49,-1,-1,51,53,55,-1,-1,57,59,61,63,65,67,69,71,73,75,77,79,-1,-1,-1,-1,-1,81,-1,83,85,87,89,91,93,-1,95,-1,97,99,101,-1,103,105,107,-1,109,111,-1,-1,113,115,-1,117,-1,119,121,123,125,127,129,-1,131,133,135,-1,137,139,141,143,145,-1,147,149,151,-1,-1,153,-1,155,157,159,161,-1,-1,163,165,-1,-1,-1,-1,-1,-1,-1,-1,-1,-1,-1,-1,-1,-1,-1,-1,-1,-1,-1,-1,-1,-1,-1,-1,-1,-1,-1,-1,-1,-1,-1,-1,-1,-1,-1,-1,-1,-1,-1,-1,-1,-1,-1,-1,-1,-1,-1,-1,-1,-1,-1,-1],"loss_changes":[4.6753647E3,2.933081E1,6.953096E2,5.8786896E1,1.1341187E1,1.2442145E2,6.1217773E1,1.6216755E0,7.8372955E-1,0E0,4.801857E0,4.8837036E1,1.610849E1,2.6763184E1,0E0,0E0,6.028881E-1,1.3501091E0,9.748802E-1,1.800416E0,6.807627E-1,8.094711E1,6.453827E1,1.3174622E1,3.1188557E1,8.291992E0,9.272709E0,0E0,0E0,0E0,9.002495E-1,0E0,0E0,2.759427E-1,3.5332203E-1,1.892694E-1,0E0,0E0,4.5342594E1,1.3571289E1,3.1241192E1,1.5748642E1,1.5329285E0,1.404255E1,7.249054E0,6.2300293E1,3.4924316E0,5.5608273E0,2.0194187E0,1.2152596E0,0E0,0E0,0E0,0E0,0E0,4.8654628E-1,0E0,3.742279E1,1.1046806E1,2.75112E1,4.3144226E-2,5.68861E0,5.0923244E1,0E0,9.105011E0,0E0,1.1924301E1,3.3428001E0,4.371973E0,0E0,1.2535685E0,1.5213135E1,2.9366104E1,0E0,5.8599976E1,8.295536E-2,0E0,0E0,5.761507E0,2.841375E-1,0E0,6.0165846E-1,0E0,3.1716524E1,3.936493E0,5.6214256E0,1.2971788E1,1.818637E1,1.3717323E1,0E0,9.833813E-2,1.3839163E1,7.3919253E0,0E0,4.553915E0,4.53701E0,8.096718E0,3.0924702E-1,8.329315E-1,0E0,1.5655804E0,2.5298977E0,3.2608933E0,0E0,0E0,7.0759995E1,0E0,9.914228E0,8.382385E0,1.08369E1,2.0427856E0,0E0,0E0,1.0581136E0,1.0939369E0,0E0,0E0,0E0,0E0,0E0,0E0,0E0,0E0,0E0,0E0,0E0,0E0,0E0,0E0,0E0,0E0,0E0,0E0,0E0,0E0,0E0,0E0,0E0,0E0,0E0,0E0,0E0,0E0,0E0,0E0,0E0,0E0,0E0,0E0,0E0,0E0,0E0,0E0,0E0,0E0,0E0,0E0,0E0,0E0,0E0,0E0,0E0,0E0,0E0,0E0,0E0,0E0],"parents":[2147483647,0,0,1,1,2,2,3,3,4,4,5,5,6,6,7,7,8,8,10,10,11,11,12,12,13,13,16,16,17,17,18,18,19,19,20,20,21,21,22,22,23,23,24,24,25,25,26,26,30,30,33,33,34,34,35,35,38,38,39,39,40,40,41,41,42,42,43,43,44,44,45,45,46,46,47,47,48,48,49,49,55,55,57,57,58,58,59,59,60,60,61,61,62,62,64,64,66,66,67,67,68,68,70,70,71,71,72,72,74,74,75,75,78,78,79,79,81,81,83,83,84,84,85,85,86,86,87,87,88,88,90,90,91,91,92,92,94,94,95,95,96,96,97,97,98,98,100,100,101,101,102,102,105,105,107,107,108,108,109,109,110,110,113,113,114,114],"right_children":[2,4,6,8,10,12,14,16,18,-1,20,22,24,26,-1,-1,28,30,32,34,36,38,40,42,44,46,48,-1,-1,-1,50,-1,-1,52,54,56,-1,-1,58,60,62,64,66,68,70,72,74,76,78,80,-1,-1,-1,-1,-1,82,-1,84,86,88,90,92,94,-1,96,-1,98,100,102,-1,104,106,108,-1,110,112,-1,-1,114,116,-1,118,-1,120,122,124,126,128,130,-1,132,134,136,-1,138,140,142,144,146,-1,148,150,152,-1,-1,154,-1,156,158,160,162,-1,-1,164,166,-1,-1,-1,-1,-1,-1,-1,-1,-1,-1,-1,-1,-1,-1,-1,-1,-1,-1,-1,-1,-1,-1,-1,-1,-1,-1,-1,-1,-1,-1,-1,-1,-1,-1,-1,-1,-1,-1,-1,-1,-1,-1,-1,-1,-1,-1,-1,-1,-1,-1,-1,-1],"split_conditions":[3E0,1E0,1.08E2,2E0,1E0,5.546802E-1,4.66E2,4.3502897E-2,7.7954787E-1,-6.449991E-2,4.3148518E-1,3.2E1,8.2E1,4.56E2,9.4695054E-2,2.34659E-2,8.9435333E-1,1.09441996E-1,1E0,1.20671146E-1,8.9435333E-1,1E1,8.2E1,4E1,9.5E1,2.57E2,8.472447E-2,8.806999E-2,2.8430358E-2,-5.8084752E-2,7.556159E-1,-6.0146756E-2,-2.9524067E-2,3.1119997E-2,3.1847352E-1,8.7185055E-1,-1.9047266E-2,8.291371E-2,3.4454298E-1,6.7E1,9.5E1,1E1,5.6E1,8.9435333E-1,1.07E2,2.27E2,3.32E2,4.61E2,3.4454298E-1,3.4454298E-1,-9.329378E-3,-1.785559E-2,1.4621844E-2,-5.8505148E-2,-1.6081357E-2,5.5638045E-1,2.8597692E-2,3E1,2.4E1,5.6E1,3.4454298E-1,1.20671146E-1,1.07E2,9.47306E-2,2.4E1,9.3164E-2,5.8E1,5.5638045E-1,8.9E1,9.3622975E-2,8.9435333E-1,1.26E2,2.43E2,9.311137E-2,3.36E2,8.656944E-3,5.9109714E-2,7.210573E-2,5.291262E-1,1.20671146E-1,-4.7808718E-2,4.6365076E-1,-7.634056E-3,2.4E1,2.2235523E-1,1.3E1,3E1,4E1,5.8E1,9.154076E-2,7.9E1,9.4E1,8.7E1,8.369433E-2,1.0090467E-1,5.5638045E-1,3.9E1,6.689341E-1,6.7E1,6.953524E-2,8.757496E-1,8.7E1,9.4E1,3.9785422E-2,-1.5280678E-2,1.25E2,9.2059955E-2,5.5638045E-1,2.52E2,5.449745E-1,8.9435333E-1,-2.9165844E-2,-5.6310352E-2,4.61E2,6.689341E-1,-1.0106727E-2,-3.0295342E-2,3.157319E-4,5.027888E-2,1.3846536E-2,9.561946E-2,-1.0795843E-2,-5.4861557E-2,1.6532319E-2,-5.0806362E-2,7.386937E-2,-3.561185E-2,4.062221E-2,9.215265E-2,-1.8018182E-2,3.9246947E-2,7.516911E-2,3.7131816E-2,3.711913E-2,-4.6224967E-2,-3.531596E-2,1.059383E-3,-6.304387E-2,2.1700512E-3,6.7416124E-2,3.175762E-2,7.405277E-2,3.979852E-3,3.4300417E-2,1.1572693E-2,7.4573584E-2,9.331518E-2,1.9840887E-2,4.726901E-2,-0E0,-4.8031878E-2,5.931377E-2,-2.473273E-2,8.972689E-2,-2.4728963E-2,4.572504E-2,1.1616929E-2,9.4803534E-2,5.2182566E-2,-2.1620428E-2,5.821076E-2,9.049685E-2,7.428534E-2,3.114188E-2,-1.8842036E-2,7.6130986E-2,4.3193053E-2],"split_indices":[2,3,2,2,4,1,2,1,1,0,1,2,2,2,0,0,1,1,1,1,1,2,2,2,2,2,1,0,0,0,1,0,0,1,1,1,0,0,1,2,2,2,2,1,2,2,2,2,1,1,0,0,0,0,0,1,0,2,2,2,1,1,2,0,2,0,2,1,2,0,1,2,2,0,2,1,0,0,1,1,0,1,0,2,1,2,2,2,2,0,2,2,2,0,1,1,2,1,2,0,1,2,2,0,0,2,0,1,2,1,1,0,0,2,1,0,0,0,0,0,0,0,0,0,0,0,0,0,0,0,0,0,0,0,0,0,0,0,0,0,0,0,0,0,0,0,0,0,0,0,0,0,0,0,0,0,0,0,0,0,0,0,0,0,0,0,0],"split_type":[0,0,0,0,0,0,0,0,0,0,0,0,0,0,0,0,0,0,0,0,0,0,0,0,0,0,0,0,0,0,0,0,0,0,0,0,0,0,0,0,0,0,0,0,0,0,0,0,0,0,0,0,0,0,0,0,0,0,0,0,0,0,0,0,0,0,0,0,0,0,0,0,0,0,0,0,0,0,0,0,0,0,0,0,0,0,0,0,0,0,0,0,0,0,0,0,0,0,0,0,0,0,0,0,0,0,0,0,0,0,0,0,0,0,0,0,0,0,0,0,0,0,0,0,0,0,0,0,0,0,0,0,0,0,0,0,0,0,0,0,0,0,0,0,0,0,0,0,0,0,0,0,0,0,0,0,0,0,0,0,0,0,0,0,0,0,0],"sum_hessian":[2.0025646E4,2.755807E3,1.726984E4,3.368893E2,2.4189175E3,3.1386814E3,1.4131158E4,4.404264E1,2.9284668E2,2.3418113E3,7.710626E1,1.877429E3,1.2612526E3,4.3073726E3,9.823786E3,7.0482655E0,3.6994377E1,1.8463701E2,1.08209656E2,4.4565815E1,3.254045E1,8.22263E2,1.055166E3,9.503974E2,3.1085513E2,4.162965E3,1.4440797E2,3.313212E1,3.862257E0,4.834015E1,1.3629686E2,9.077642E1,1.7433237E1,7.965541E0,3.6600273E1,2.4598827E1,7.9416227E0,1.1012363E2,7.1213934E2,5.9188495E2,4.63281E2,5.547908E2,3.956066E2,1.9795479E2,1.12900345E2,2.20408E3,1.9588846E3,2.8575283E1,1.1583269E2,1.2356615E2,1.2730712E1,4.0661798E0,3.899361E0,3.2618206E1,3.982067E0,1.9610863E1,4.9879646E0,4.2283267E2,2.8930667E2,4.6462744E2,1.2725752E2,3.125985E2,1.506825E2,1.0073043E2,4.5406036E2,1.4963145E2,2.4597514E2,1.3140245E2,6.655233E1,9.869962E1,1.4200721E1,1.6504124E3,5.536676E2,7.016857E2,1.257199E3,2.1792837E1,6.7824454E0,3.2082954E1,8.3749725E1,4.9240353E1,7.43258E1,9.483187E0,1.0127676E1,3.2445004E2,9.838264E1,2.4629593E2,4.3010757E1,2.846133E2,1.8001416E2,9.6930664E1,3.0326859E1,9.025069E1,2.2234782E2,1.0453932E2,4.614317E1,2.6320886E2,1.9085152E2,3.3002815E1,2.1297232E2,2.5341545E1,1.06060905E2,5.0015274E1,1.6537058E1,7.774898E0,6.4258227E0,3.4390186E2,1.3065105E3,3.4582294E2,2.078447E2,8.140594E1,1.175793E3,1.7409578E1,4.38326E0,1.9829609E1,6.392012E1,1.2570316E1,3.6670036E1,6.2824006E0,3.2007866E0,2.677222E2,5.672782E1,3.0557194E1,6.782544E1,1.2313549E1,2.3398238E2,1.6566338E1,2.644442E1,1.2918388E2,1.5542941E2,6.3823963E1,1.1619019E2,2.4513424E1,5.813434E0,6.2478336E1,2.7772354E1,1.1926623E2,1.0308159E2,3.0538996E1,1.5604175E1,4.4197525E1,2.1901132E2,1.721375E2,1.871402E1,9.773121E0,2.3229696E1,9.5867226E1,1.17105095E2,7.45589E1,3.1502007E1,1.5264153E1,3.475112E1,9.575635E0,6.961423E0,2.776245E2,6.627733E1,1.8470905E2,1.6111388E2,1.2226656E2,8.557813E1,5.8896923E1,2.250901E1,1.0408977E3,1.348953E2,4.4301195E0,1.539949E1,1.973295E1,4.418717E1],"tree_param":{"num_deleted":"0","num_feature":"5","num_nodes":"167","size_leaf_vector":"1"}},{"base_weights":[-3.417453E-1,9.4337267E-1,-6.562606E-2,-4.3071932E-1,9.548068E-1,-7.1996786E-3,-5.6823786E-2,9.554418E-2,3.480604E-2],"categories":[],"categories_nodes":[],"categories_segments":[],"categories_sizes":[],"default_left":[0,0,0,0,0,0,0,0,0],"id":13,"left_children":[1,3,-1,5,7,-1,-1,-1,-1],"loss_changes":[6.661651E3,5.146167E1,0E0,1.243401E0,7.089844E-1,0E0,0E0,0E0,0E0],"parents":[2147483647,0,0,1,1,3,3,4,4],"right_children":[2,4,-1,6,8,-1,-1,-1,-1],"split_conditions":[1.4E1,1E0,-6.562606E-2,2E0,1E0,-7.1996786E-3,-5.6823786E-2,9.554418E-2,3.480604E-2],"split_indices":[0,3,0,2,4,0,0,0,0],"split_type":[0,0,0,0,0,0,0,0,0],"sum_hessian":[1.6478545E4,3.2394304E3,1.3239115E4,2.62983E1,3.213132E3,7.995955E0,1.8302345E1,3.2089194E3,4.2125793E0],"tree_param":{"num_deleted":"0","num_feature":"5","num_nodes":"9","size_leaf_vector":"1"}},{"base_weights":[-4.036156E-1,-6.0879078E-2,-6.38262E-1,-6.511312E-1,2.609549E-1,-5.185779E-1,-6.4568275E-1,-3.056864E-1,-6.555659E-1,6.3371867E-1,-2.5048116E-1,-3.7092417E-1,-5.355647E-1,-6.485809E-2,-6.1909765E-2,-1.2928635E-1,-3.795348E-1,-6.561901E-2,-2.7757773E-2,7.9167145E-1,4.525482E-1,-4.0263715E-1,4.7101703E-1,-1.8592788E-2,-4.1090306E-2,-5.9575167E-2,-5.0405353E-1,-3.2892566E-2,1.592063E-2,-4.6068933E-2,-6.746605E-3,6.146896E-1,8.30005E-1,-6.595857E-2,5.862011E-1,-5.816473E-1,-1.8723954E-1,7.39699E-2,5.681335E-1,-4.1277412E-2,-5.232195E-1,6.44229E-1,-2.5160506E-1,8.68592E-1,7.4071974E-1,6.9034296E-1,3.9221847E-1,-2.2872645E-1,-6.1322135E-1,1.1549385E-1,-3.2830772E-1,-2.7424693E-1,4.4835806E-1,7.167106E-2,3.4132352E-1,-6.3556395E-2,-4.899458E-2,8.72666E-2,5.651507E-1,-5.0602872E-2,8.696968E-3,8.1096727E-1,9.326561E-1,4.2518046E-1,7.7320623E-1,1.3246226E-1,7.470781E-1,3.7728406E-2,5.2009207E-1,-2.5480682E-1,-0E0,-6.5062374E-2,-4.372205E-1,4.5781076E-2,5.0701964E-1,-1.9858502E-1,-4.8949474E-1,-1.0688647E-2,-2.9761162E-1,8.1697725E-2,-9.493679E-2,-7.0061795E-2,4.8393574E-1,3.677637E-2,7.594581E-2,7.8589156E-2,9.5245115E-2,9.440836E-2,4.905295E-2,1.7401448E-2,4.6399638E-2,7.97275E-2,4.403293E-2,5.044498E-2,-2.1856273E-2,8.3440565E-2,6.541168E-2,-1.8354489E-2,1.7594868E-2,6.607833E-2,2.2991402E-2,-1.5727634E-2,-3.7478786E-2,-1.8931765E-2,-4.5962837E-2,4.0524643E-2,-3.9401557E-3,9.867559E-3,7.636313E-2,-4.6512846E-2,-2.3268678E-3,-6.2774435E-2,-4.5217358E-2,-3.8004316E-2,-1.8146811E-2,-2.4524933E-2,8.223032E-3,2.167542E-2,-1.9867947E-2,5.374769E-2,-3.1542138E-3],"categories":[],"categories_nodes":[],"categories_segments":[],"categories_sizes":[],"default_left":[0,0,0,0,0,0,0,0,0,0,0,0,0,0,0,0,0,0,0,0,0,0,0,0,0,0,0,0,0,0,0,0,0,0,0,0,0,0,0,0,0,0,0,0,0,0,0,0,0,0,0,0,0,0,0,0,0,0,0,0,0,0,0,0,0,0,0,0,0,0,0,0,0,0,0,0,0,0,0,0,0,0,0,0,0,0,0,0,0,0,0,0,0,0,0,0,0,0,0,0,0,0,0,0,0,0,0,0,0,0,0,0,0,0,0,0,0,0,0,0,0],"id":14,"left_children":[1,3,5,7,9,11,13,15,17,19,21,23,25,-1,-1,27,29,-1,-1,31,33,35,37,-1,-1,-1,39,-1,-1,-1,-1,41,43,-1,45,47,49,51,53,-1,55,57,59,61,63,65,67,69,71,73,75,77,79,-1,81,-1,-1,-1,83,-1,-1,85,87,89,91,93,95,97,99,101,-1,-1,103,105,107,109,111,-1,113,-1,115,117,119,-1,-1,-1,-1,-1,-1,-1,-1,-1,-1,-1,-1,-1,-1,-1,-1,-1,-1,-1,-1,-1,-1,-1,-1,-1,-1,-1,-1,-1,-1,-1,-1,-1,-1,-1,-1,-1,-1],"loss_changes":[1.3229814E3,1.270626E3,8.155273E0,3.2789917E0,8.254435E2,1.1182861E0,9.9365234E-2,3.1295252E-1,2.3754883E-1,7.110559E1,2.0063437E2,3.2232285E-1,5.0483704E-1,0E0,0E0,7.5916535E-1,4.6336102E-1,0E0,0E0,8.306519E0,1.7428383E2,5.795404E1,1.2162186E1,0E0,0E0,0E0,2.5321198E-1,0E0,0E0,0E0,0E0,6.4502335E0,2.83667E0,0E0,2.0671661E1,8.917847E0,2.9390633E1,8.528478E0,8.2083435E0,0E0,5.637436E-1,3.5161362E0,8.4945995E-1,1.7098999E0,2.9618378E0,2.124823E1,1.660453E1,4.3742442E-1,4.5160217E0,5.8921776E0,9.619537E0,5.3720713E-2,6.475463E0,0E0,6.1634436E0,0E0,0E0,0E0,6.400997E0,0E0,0E0,3.7597656E-1,1.0656433E0,1.7671013E-1,1.9042664E0,8.5431E0,4.187622E0,3.0680418E0,1.0758957E1,6.1260605E-1,0E0,0E0,5.8810425E-1,5.793017E0,3.2553349E0,1.2189844E1,6.24279E-1,0E0,1.3396025E-1,0E0,4.053921E-1,1.0662287E0,2.2044983E0,0E0,0E0,0E0,0E0,0E0,0E0,0E0,0E0,0E0,0E0,0E0,0E0,0E0,0E0,0E0,0E0,0E0,0E0,0E0,0E0,0E0,0E0,0E0,0E0,0E0,0E0,0E0,0E0,0E0,0E0,0E0,0E0,0E0,0E0,0E0,0E0,0E0,0E0],"parents":[2147483647,0,0,1,1,2,2,3,3,4,4,5,5,6,6,7,7,8,8,9,9,10,10,11,11,12,12,15,15,16,16,19,19,20,20,21,21,22,22,26,26,31,31,32,32,34,34,35,35,36,36,37,37,38,38,40,40,41,41,42,42,43,43,44,44,45,45,46,46,47,47,48,48,49,49,50,50,51,51,52,52,54,54,58,58,61,61,62,62,63,63,64,64,65,65,66,66,67,67,68,68,69,69,72,72,73,73,74,74,75,75,76,76,78,78,80,80,81,81,82,82],"right_children":[2,4,6,8,10,12,14,16,18,20,22,24,26,-1,-1,28,30,-1,-1,32,34,36,38,-1,-1,-1,40,-1,-1,-1,-1,42,44,-1,46,48,50,52,54,-1,56,58,60,62,64,66,68,70,72,74,76,78,80,-1,82,-1,-1,-1,84,-1,-1,86,88,90,92,94,96,98,100,102,-1,-1,104,106,108,110,112,-1,114,-1,116,118,120,-1,-1,-1,-1,-1,-1,-1,-1,-1,-1,-1,-1,-1,-1,-1,-1,-1,-1,-1,-1,-1,-1,-1,-1,-1,-1,-1,-1,-1,-1,-1,-1,-1,-1,-1,-1,-1,-1],"split_conditions":[8.1E2,1.4E1,1.035E3,1E0,2.28E2,2.5519254E-2,8.9435333E-1,1.8242936E-1,1E0,7.2E1,7.7E2,8.56E2,3.4454298E-1,-6.485809E-2,-6.1909765E-2,4.3502897E-2,7.7954787E-1,-6.561901E-2,-2.7757773E-2,3.3E1,1.26E2,5.58E2,7.83E2,-1.8592788E-2,-4.1090306E-2,-5.9575167E-2,5.38466E-1,-3.2892566E-2,1.592063E-2,-4.6068933E-2,-6.746605E-3,1E0,5.546802E-1,-6.595857E-2,5.38466E-1,2.49E2,6.09E2,6.689341E-1,7.94E2,-4.1277412E-2,5.5638045E-1,1.09441996E-1,6.689341E-1,3.4454298E-1,5.5638045E-1,1.49E2,6.689341E-1,8.9435333E-1,5.13E2,8.9435333E-1,5.449745E-1,8.656944E-3,8.757496E-1,7.167106E-2,3.4454298E-1,-6.3556395E-2,-4.899458E-2,8.72666E-2,7.7954787E-1,-5.0602872E-2,8.696968E-3,1E0,6.4E1,4.2E1,6.4E1,1.32E2,1.74E2,5.5638045E-1,1.74E2,4.535235E-1,-0E0,-6.5062374E-2,5.8914326E-2,8.472447E-2,5.93E2,6.82E2,5.5638045E-1,-1.0688647E-2,3.4454298E-1,8.1697725E-2,8.9435333E-1,5.3579234E-2,9.727458E-1,3.677637E-2,7.594581E-2,7.8589156E-2,9.5245115E-2,9.440836E-2,4.905295E-2,1.7401448E-2,4.6399638E-2,7.97275E-2,4.403293E-2,5.044498E-2,-2.1856273E-2,8.3440565E-2,6.541168E-2,-1.8354489E-2,1.7594868E-2,6.607833E-2,2.2991402E-2,-1.5727634E-2,-3.7478786E-2,-1.8931765E-2,-4.5962837E-2,4.0524643E-2,-3.9401557E-3,9.867559E-3,7.636313E-2,-4.6512846E-2,-2.3268678E-3,-6.2774435E-2,-4.5217358E-2,-3.8004316E-2,-1.8146811E-2,-2.4524933E-2,8.223032E-3,2.167542E-2,-1.9867947E-2,5.374769E-2,-3.1542138E-3],"split_indices":[0,0,0,3,0,1,1,1,4,0,0,0,1,0,0,1,1,0,0,0,0,0,0,0,0,0,1,0,0,0,0,3,1,0,1,0,0,1,0,0,1,1,1,1,1,0,1,1,0,1,1,1,1,0,1,0,0,0,1,0,0,3,0,0,0,0,0,1,0,1,0,0,1,1,0,0,1,0,1,0,1,1,1,0,0,0,0,0,0,0,0,0,0,0,0,0,0,0,0,0,0,0,0,0,0,0,0,0,0,0,0,0,0,0,0,0,0,0,0,0,0],"split_type":[0,0,0,0,0,0,0,0,0,0,0,0,0,0,0,0,0,0,0,0,0,0,0,0,0,0,0,0,0,0,0,0,0,0,0,0,0,0,0,0,0,0,0,0,0,0,0,0,0,0,0,0,0,0,0,0,0,0,0,0,0,0,0,0,0,0,0,0,0,0,0,0,0,0,0,0,0,0,0,0,0,0,0,0,0,0,0,0,0,0,0,0,0,0,0,0,0,0,0,0,0,0,0,0,0,0,0,0,0,0,0,0,0,0,0,0,0,0,0,0,0],"sum_hessian":[1.645077E4,6.6863223E3,9.764448E3,2.3589775E3,4.3273447E3,5.7583246E2,9.188615E3,3.1249619E1,2.3277278E3,2.5029563E3,1.8243887E3,6.2846527E1,5.1298596E2,8.256697E3,9.3191846E2,1.0595453E1,2.0654165E1,2.322745E3,4.9828367E0,1.3347041E3,1.1682521E3,1.5072047E3,3.171839E2,1.2817508E1,5.002902E1,1.6780849E2,3.4517746E2,6.3675213E0,4.227932E0,1.5683647E1,4.970518E0,2.4172733E2,1.0929768E3,1.2474776E2,1.0435044E3,8.217608E2,6.85444E2,6.2953E1,2.542309E2,6.549845E1,2.79679E2,2.3416565E2,7.5616746E0,7.550627E2,3.3791406E2,6.766503E2,3.66854E2,6.85541E1,7.532067E2,2.177212E2,4.6772275E2,3.264443E1,3.0308569E1,1.5177458E2,1.02456314E2,5.825663E1,2.2142236E2,5.679433E1,1.7737132E2,4.1471395E0,3.4145346E0,4.0695966E2,3.4810303E2,3.340801E1,3.0450607E2,6.299364E1,6.136567E2,9.787151E1,2.689825E2,6.1742943E1,6.811157E0,6.180574E2,1.3514935E2,1.8616881E2,3.1552393E1,2.6098325E2,2.0673949E2,5.3429203E0,2.7301508E1,1.7806581E1,1.2501987E1,2.635135E1,7.6104965E1,8.996566E1,8.7405655E1,3.5297324E2,5.3986423E1,3.3778384E2,1.0319165E1,5.6974554E0,2.7710554E1,2.8213187E2,2.2374184E1,3.046729E1,3.252635E1,3.1092654E2,3.0273013E2,3.720077E1,6.0670746E1,1.7988771E2,8.9094795E1,3.6047245E1,2.5695696E1,1.251329E1,1.22636055E2,3.5026073E1,1.5114273E2,1.2967866E1,1.8584526E1,1.0253672E2,1.5844653E2,3.9341713E1,1.6739778E2,1.3869889E1,1.3431619E1,6.819484E0,5.682503E0,7.663042E0,1.8688309E1,6.90733E1,7.031656E0],"tree_param":{"num_deleted":"0","num_feature":"5","num_nodes":"121","size_leaf_vector":"1"}},{"base_weights":[5.725242E-1,-5.761828E-1,7.480553E-1,-2.8453434E-1,-6.166849E-1,3.486127E-1,8.3692616E-1,7.259269E-1,-4.4513112E-1,-6.277284E-2,-2.8967202E-1,1.998644E-1,5.643681E-1,7.4293166E-1,8.7827444E-2,1.6065136E-2,8.164942E-1,-3.8757086E-1,-5.361452E-1,-4.334622E-1,-6.3789584E-2,2.9425097E-1,-3.817314E-2,6.2064874E-1,3.8435042E-1,7.56154E-1,3.4383127E-1,8.6671375E-2,2.6636196E-2,-4.121271E-1,-1.1189057E-3,-5.8449578E-2,-2.330272E-2,-0E0,-5.3498227E-2,5.658943E-2,-3.8807016E-2,3.7953758E-1,6.100778E-2,-3.311135E-1,2.5193813E-1,5.117719E-1,7.7101856E-1,1.6957009E-1,7.635903E-1,7.1594054E-1,8.011196E-1,-1.11727305E-1,4.5030376E-1,-5.3565145E-2,-3.604106E-1,-2.2965904E-2,2.8109614E-2,-1.0089779E-2,2.6582582E-2,2.47408E-1,5.9639335E-1,-1.1367999E-1,3.8427144E-1,5.155704E-1,-4.7249097E-1,-6.691735E-2,4.010228E-1,8.7518945E-2,4.2874503E-1,8.5810356E-2,7.236757E-1,3.5181332E-1,-1.8744451E-1,8.7851144E-2,-4.641312E-2,8.070723E-1,4.405405E-1,8.6134754E-2,7.669257E-1,-3.6313975E-1,8.145618E-2,7.0586085E-2,3.4268752E-1,-2.0272554E-1,-4.5288328E-2,8.3018094E-2,-2.0276949E-2,7.623168E-2,1.6075982E-1,9.00576E-2,4.3649694E-1,9.72255E-2,-2.3467548E-1,7.819345E-1,-4.073153E-1,6.724786E-2,1.608934E-2,-6.257942E-2,-4.3967125E-1,4.6115568E-1,-6.33773E-2,3.0664337E-1,5.865767E-1,4.1297463E-1,7.941351E-1,5.3024155E-1,2.153249E-1,-3.1302598E-1,1.8453851E-1,1.8563814E-2,-2.8401366E-2,6.297734E-1,8.536677E-2,2.6517835E-1,7.2346586E-1,-5.1410522E-2,8.225889E-1,-2.8707206E-2,-5.3520035E-2,-4.5578517E-2,4.8033896E-1,-2.8225293E-2,4.1429615E-3,-1.1589692E-2,3.1393897E-2,-2.834327E-2,2.3421524E-2,1.6152333E-2,8.683846E-2,3.1871907E-2,-4.2441778E-2,-3.557757E-2,5.3430325E-3,6.039837E-2,8.400886E-2,-6.130466E-2,1.0925136E-2,-4.0265903E-2,-6.2490273E-2,5.985379E-2,2.131929E-2,5.4577768E-2,2.5352607E-2,6.51848E-2,1.5386273E-4,7.1566336E-2,2.4474204E-2,7.047069E-2,8.578591E-2,3.4954518E-2,5.6620803E-2,2.5282092E-3,4.5687582E-2,3.1984579E-3,-5.0322425E-2,5.3335913E-2,-2.5695225E-2,8.283238E-2,-2.539645E-2,4.04714E-2,1.0418179E-2,8.791619E-2,4.9953908E-2,-2.6109848E-2,4.4438485E-2,8.6369194E-2,7.607298E-2,3.3324074E-2,-1.803142E-2,7.094222E-2,3.4432095E-2],"categories":[],"categories_nodes":[],"categories_segments":[],"categories_sizes":[],"default_left":[0,0,0,0,0,0,0,0,0,0,0,0,0,0,0,0,0,0,0,0,0,0,0,0,0,0,0,0,0,0,0,0,0,0,0,0,0,0,0,0,0,0,0,0,0,0,0,0,0,0,0,0,0,0,0,0,0,0,0,0,0,0,0,0,0,0,0,0,0,0,0,0,0,0,0,0,0,0,0,0,0,0,0,0,0,0,0,0,0,0,0,0,0,0,0,0,0,0,0,0,0,0,0,0,0,0,0,0,0,0,0,0,0,0,0,0,0,0,0,0,0,0,0,0,0,0,0,0,0,0,0,0,0,0,0,0,0,0,0,0,0,0,0,0,0,0,0,0,0,0,0,0,0,0,0,0,0,0,0,0,0,0,0,0,0,0,0],"id":15,"left_children":[1,3,5,7,9,11,13,15,17,-1,19,21,23,25,-1,-1,27,29,31,33,35,37,39,41,43,45,47,-1,-1,49,-1,-1,-1,51,-1,53,-1,55,57,59,61,63,65,67,69,71,73,75,77,-1,79,-1,-1,81,-1,83,85,87,89,91,93,-1,95,-1,97,-1,99,101,103,-1,105,107,109,-1,111,113,-1,-1,115,117,-1,119,-1,-1,121,-1,